digraph Tree {
node [shape=box, style="filled, rounded", color="black", fontname="helvetica"] ;
edge [fontname="helvetica"] ;
0 [label=<52 &le; 0.096<br/>gini = 0.831<br/>samples = 7352<br/>value = [1226, 1073, 986, 1286, 1374, 1407]>, fillcolor="#fffefe"] ;
1 [label=<gini = 0.0<br/>samples = 1407<br/>value = [0, 0, 0, 0, 0, 1407]>, fillcolor="#e5399d"] ;
0 -> 1 [labeldistance=2.5, labelangle=45, headlabel="True"] ;
2 [label=<389 &le; -0.974<br/>gini = 0.797<br/>samples = 5945<br/>value = [1226, 1073, 986, 1286, 1374, 0]>, fillcolor="#fdfbff"] ;
0 -> 2 [labeldistance=2.5, labelangle=-45, headlabel="False"] ;
3 [label=<41 &le; -0.084<br/>gini = 0.499<br/>samples = 2660<br/>value = [0, 0, 0, 1286, 1374, 0]>, fillcolor="#f7f2fd"] ;
2 -> 3 ;
4 [label=<41 &le; -0.168<br/>gini = 0.155<br/>samples = 1296<br/>value = [0, 0, 0, 110, 1186, 0]>, fillcolor="#8d4be7"] ;
3 -> 4 ;
5 [label=<389 &le; -1.0<br/>gini = 0.085<br/>samples = 875<br/>value = [0, 0, 0, 39, 836, 0]>, fillcolor="#8742e6"] ;
4 -> 5 ;
6 [label=<389 &le; -1.0<br/>gini = 0.005<br/>samples = 375<br/>value = [0, 0, 0, 1, 374, 0]>, fillcolor="#813ae5"] ;
5 -> 6 ;
7 [label=<gini = 0.0<br/>samples = 272<br/>value = [0, 0, 0, 0, 272, 0]>, fillcolor="#8139e5"] ;
6 -> 7 ;
8 [label=<389 &le; -1.0<br/>gini = 0.019<br/>samples = 103<br/>value = [0, 0, 0, 1, 102, 0]>, fillcolor="#823be5"] ;
6 -> 8 ;
9 [label=<52 &le; 0.976<br/>gini = 0.095<br/>samples = 20<br/>value = [0, 0, 0, 1, 19, 0]>, fillcolor="#8843e6"] ;
8 -> 9 ;
10 [label=<gini = 0.0<br/>samples = 14<br/>value = [0, 0, 0, 0, 14, 0]>, fillcolor="#8139e5"] ;
9 -> 10 ;
11 [label=<41 &le; -0.201<br/>gini = 0.278<br/>samples = 6<br/>value = [0, 0, 0, 1, 5, 0]>, fillcolor="#9a61ea"] ;
9 -> 11 ;
12 [label=<gini = 0.0<br/>samples = 1<br/>value = [0, 0, 0, 1, 0, 0]>, fillcolor="#399de5"] ;
11 -> 12 ;
13 [label=<gini = 0.0<br/>samples = 5<br/>value = [0, 0, 0, 0, 5, 0]>, fillcolor="#8139e5"] ;
11 -> 13 ;
14 [label=<gini = 0.0<br/>samples = 83<br/>value = [0, 0, 0, 0, 83, 0]>, fillcolor="#8139e5"] ;
8 -> 14 ;
15 [label=<52 &le; 0.971<br/>gini = 0.14<br/>samples = 500<br/>value = [0, 0, 0, 38, 462, 0]>, fillcolor="#8b49e7"] ;
5 -> 15 ;
16 [label=<41 &le; -0.286<br/>gini = 0.084<br/>samples = 362<br/>value = [0, 0, 0, 16, 346, 0]>, fillcolor="#8742e6"] ;
15 -> 16 ;
17 [label=<41 &le; -0.308<br/>gini = 0.216<br/>samples = 122<br/>value = [0, 0, 0, 15, 107, 0]>, fillcolor="#9355e9"] ;
16 -> 17 ;
18 [label=<389 &le; -1.0<br/>gini = 0.059<br/>samples = 98<br/>value = [0, 0, 0, 3, 95, 0]>, fillcolor="#853fe6"] ;
17 -> 18 ;
19 [label=<gini = 0.0<br/>samples = 1<br/>value = [0, 0, 0, 1, 0, 0]>, fillcolor="#399de5"] ;
18 -> 19 ;
20 [label=<41 &le; -0.317<br/>gini = 0.04<br/>samples = 97<br/>value = [0, 0, 0, 2, 95, 0]>, fillcolor="#843de6"] ;
18 -> 20 ;
21 [label=<gini = 0.0<br/>samples = 83<br/>value = [0, 0, 0, 0, 83, 0]>, fillcolor="#8139e5"] ;
20 -> 21 ;
22 [label=<41 &le; -0.316<br/>gini = 0.245<br/>samples = 14<br/>value = [0, 0, 0, 2, 12, 0]>, fillcolor="#965ae9"] ;
20 -> 22 ;
23 [label=<gini = 0.0<br/>samples = 1<br/>value = [0, 0, 0, 1, 0, 0]>, fillcolor="#399de5"] ;
22 -> 23 ;
24 [label=<41 &le; -0.314<br/>gini = 0.142<br/>samples = 13<br/>value = [0, 0, 0, 1, 12, 0]>, fillcolor="#8c49e7"] ;
22 -> 24 ;
25 [label=<41 &le; -0.314<br/>gini = 0.375<br/>samples = 4<br/>value = [0, 0, 0, 1, 3, 0]>, fillcolor="#ab7bee"] ;
24 -> 25 ;
26 [label=<gini = 0.0<br/>samples = 3<br/>value = [0, 0, 0, 0, 3, 0]>, fillcolor="#8139e5"] ;
25 -> 26 ;
27 [label=<gini = 0.0<br/>samples = 1<br/>value = [0, 0, 0, 1, 0, 0]>, fillcolor="#399de5"] ;
25 -> 27 ;
28 [label=<gini = 0.0<br/>samples = 9<br/>value = [0, 0, 0, 0, 9, 0]>, fillcolor="#8139e5"] ;
24 -> 28 ;
29 [label=<41 &le; -0.3<br/>gini = 0.5<br/>samples = 24<br/>value = [0, 0, 0, 12, 12, 0]>, fillcolor="#ffffff"] ;
17 -> 29 ;
30 [label=<52 &le; 0.923<br/>gini = 0.153<br/>samples = 12<br/>value = [0, 0, 0, 11, 1, 0]>, fillcolor="#4ba6e7"] ;
29 -> 30 ;
31 [label=<gini = 0.0<br/>samples = 1<br/>value = [0, 0, 0, 0, 1, 0]>, fillcolor="#8139e5"] ;
30 -> 31 ;
32 [label=<gini = 0.0<br/>samples = 11<br/>value = [0, 0, 0, 11, 0, 0]>, fillcolor="#399de5"] ;
30 -> 32 ;
33 [label=<41 &le; -0.286<br/>gini = 0.153<br/>samples = 12<br/>value = [0, 0, 0, 1, 11, 0]>, fillcolor="#8c4be7"] ;
29 -> 33 ;
34 [label=<gini = 0.0<br/>samples = 11<br/>value = [0, 0, 0, 0, 11, 0]>, fillcolor="#8139e5"] ;
33 -> 34 ;
35 [label=<gini = 0.0<br/>samples = 1<br/>value = [0, 0, 0, 1, 0, 0]>, fillcolor="#399de5"] ;
33 -> 35 ;
36 [label=<52 &le; 0.6<br/>gini = 0.008<br/>samples = 240<br/>value = [0, 0, 0, 1, 239, 0]>, fillcolor="#823ae5"] ;
16 -> 36 ;
37 [label=<gini = 0.0<br/>samples = 1<br/>value = [0, 0, 0, 1, 0, 0]>, fillcolor="#399de5"] ;
36 -> 37 ;
38 [label=<gini = 0.0<br/>samples = 239<br/>value = [0, 0, 0, 0, 239, 0]>, fillcolor="#8139e5"] ;
36 -> 38 ;
39 [label=<41 &le; -0.213<br/>gini = 0.268<br/>samples = 138<br/>value = [0, 0, 0, 22, 116, 0]>, fillcolor="#995fea"] ;
15 -> 39 ;
40 [label=<52 &le; 0.976<br/>gini = 0.497<br/>samples = 41<br/>value = [0, 0, 0, 19, 22, 0]>, fillcolor="#eee4fb"] ;
39 -> 40 ;
41 [label=<52 &le; 0.973<br/>gini = 0.444<br/>samples = 33<br/>value = [0, 0, 0, 11, 22, 0]>, fillcolor="#c09cf2"] ;
40 -> 41 ;
42 [label=<41 &le; -0.23<br/>gini = 0.346<br/>samples = 9<br/>value = [0, 0, 0, 7, 2, 0]>, fillcolor="#72b9ec"] ;
41 -> 42 ;
43 [label=<gini = 0.0<br/>samples = 6<br/>value = [0, 0, 0, 6, 0, 0]>, fillcolor="#399de5"] ;
42 -> 43 ;
44 [label=<41 &le; -0.225<br/>gini = 0.444<br/>samples = 3<br/>value = [0, 0, 0, 1, 2, 0]>, fillcolor="#c09cf2"] ;
42 -> 44 ;
45 [label=<gini = 0.0<br/>samples = 2<br/>value = [0, 0, 0, 0, 2, 0]>, fillcolor="#8139e5"] ;
44 -> 45 ;
46 [label=<gini = 0.0<br/>samples = 1<br/>value = [0, 0, 0, 1, 0, 0]>, fillcolor="#399de5"] ;
44 -> 46 ;
47 [label=<52 &le; 0.974<br/>gini = 0.278<br/>samples = 24<br/>value = [0, 0, 0, 4, 20, 0]>, fillcolor="#9a61ea"] ;
41 -> 47 ;
48 [label=<52 &le; 0.973<br/>gini = 0.408<br/>samples = 14<br/>value = [0, 0, 0, 4, 10, 0]>, fillcolor="#b388ef"] ;
47 -> 48 ;
49 [label=<52 &le; 0.973<br/>gini = 0.298<br/>samples = 11<br/>value = [0, 0, 0, 2, 9, 0]>, fillcolor="#9d65eb"] ;
48 -> 49 ;
50 [label=<389 &le; -1.0<br/>gini = 0.48<br/>samples = 5<br/>value = [0, 0, 0, 2, 3, 0]>, fillcolor="#d5bdf6"] ;
49 -> 50 ;
51 [label=<gini = 0.0<br/>samples = 3<br/>value = [0, 0, 0, 0, 3, 0]>, fillcolor="#8139e5"] ;
50 -> 51 ;
52 [label=<gini = 0.0<br/>samples = 2<br/>value = [0, 0, 0, 2, 0, 0]>, fillcolor="#399de5"] ;
50 -> 52 ;
53 [label=<gini = 0.0<br/>samples = 6<br/>value = [0, 0, 0, 0, 6, 0]>, fillcolor="#8139e5"] ;
49 -> 53 ;
54 [label=<52 &le; 0.974<br/>gini = 0.444<br/>samples = 3<br/>value = [0, 0, 0, 2, 1, 0]>, fillcolor="#9ccef2"] ;
48 -> 54 ;
55 [label=<gini = 0.0<br/>samples = 1<br/>value = [0, 0, 0, 1, 0, 0]>, fillcolor="#399de5"] ;
54 -> 55 ;
56 [label=<52 &le; 0.974<br/>gini = 0.5<br/>samples = 2<br/>value = [0, 0, 0, 1, 1, 0]>, fillcolor="#ffffff"] ;
54 -> 56 ;
57 [label=<gini = 0.0<br/>samples = 1<br/>value = [0, 0, 0, 0, 1, 0]>, fillcolor="#8139e5"] ;
56 -> 57 ;
58 [label=<gini = 0.0<br/>samples = 1<br/>value = [0, 0, 0, 1, 0, 0]>, fillcolor="#399de5"] ;
56 -> 58 ;
59 [label=<gini = 0.0<br/>samples = 10<br/>value = [0, 0, 0, 0, 10, 0]>, fillcolor="#8139e5"] ;
47 -> 59 ;
60 [label=<gini = 0.0<br/>samples = 8<br/>value = [0, 0, 0, 8, 0, 0]>, fillcolor="#399de5"] ;
40 -> 60 ;
61 [label=<41 &le; -0.2<br/>gini = 0.06<br/>samples = 97<br/>value = [0, 0, 0, 3, 94, 0]>, fillcolor="#853fe6"] ;
39 -> 61 ;
62 [label=<41 &le; -0.201<br/>gini = 0.278<br/>samples = 12<br/>value = [0, 0, 0, 2, 10, 0]>, fillcolor="#9a61ea"] ;
61 -> 62 ;
63 [label=<52 &le; 0.978<br/>gini = 0.165<br/>samples = 11<br/>value = [0, 0, 0, 1, 10, 0]>, fillcolor="#8e4de8"] ;
62 -> 63 ;
64 [label=<52 &le; 0.976<br/>gini = 0.444<br/>samples = 3<br/>value = [0, 0, 0, 1, 2, 0]>, fillcolor="#c09cf2"] ;
63 -> 64 ;
65 [label=<gini = 0.0<br/>samples = 2<br/>value = [0, 0, 0, 0, 2, 0]>, fillcolor="#8139e5"] ;
64 -> 65 ;
66 [label=<gini = 0.0<br/>samples = 1<br/>value = [0, 0, 0, 1, 0, 0]>, fillcolor="#399de5"] ;
64 -> 66 ;
67 [label=<gini = 0.0<br/>samples = 8<br/>value = [0, 0, 0, 0, 8, 0]>, fillcolor="#8139e5"] ;
63 -> 67 ;
68 [label=<gini = 0.0<br/>samples = 1<br/>value = [0, 0, 0, 1, 0, 0]>, fillcolor="#399de5"] ;
62 -> 68 ;
69 [label=<52 &le; 0.978<br/>gini = 0.023<br/>samples = 85<br/>value = [0, 0, 0, 1, 84, 0]>, fillcolor="#823be5"] ;
61 -> 69 ;
70 [label=<52 &le; 0.977<br/>gini = 0.111<br/>samples = 17<br/>value = [0, 0, 0, 1, 16, 0]>, fillcolor="#8945e7"] ;
69 -> 70 ;
71 [label=<gini = 0.0<br/>samples = 16<br/>value = [0, 0, 0, 0, 16, 0]>, fillcolor="#8139e5"] ;
70 -> 71 ;
72 [label=<gini = 0.0<br/>samples = 1<br/>value = [0, 0, 0, 1, 0, 0]>, fillcolor="#399de5"] ;
70 -> 72 ;
73 [label=<gini = 0.0<br/>samples = 68<br/>value = [0, 0, 0, 0, 68, 0]>, fillcolor="#8139e5"] ;
69 -> 73 ;
74 [label=<52 &le; 0.942<br/>gini = 0.28<br/>samples = 421<br/>value = [0, 0, 0, 71, 350, 0]>, fillcolor="#9b61ea"] ;
4 -> 74 ;
75 [label=<52 &le; 0.922<br/>gini = 0.5<br/>samples = 85<br/>value = [0, 0, 0, 42, 43, 0]>, fillcolor="#fcfafe"] ;
74 -> 75 ;
76 [label=<52 &le; 0.882<br/>gini = 0.435<br/>samples = 50<br/>value = [0, 0, 0, 16, 34, 0]>, fillcolor="#bc96f1"] ;
75 -> 76 ;
77 [label=<41 &le; -0.092<br/>gini = 0.165<br/>samples = 11<br/>value = [0, 0, 0, 10, 1, 0]>, fillcolor="#4da7e8"] ;
76 -> 77 ;
78 [label=<gini = 0.0<br/>samples = 10<br/>value = [0, 0, 0, 10, 0, 0]>, fillcolor="#399de5"] ;
77 -> 78 ;
79 [label=<gini = 0.0<br/>samples = 1<br/>value = [0, 0, 0, 0, 1, 0]>, fillcolor="#8139e5"] ;
77 -> 79 ;
80 [label=<41 &le; -0.107<br/>gini = 0.26<br/>samples = 39<br/>value = [0, 0, 0, 6, 33, 0]>, fillcolor="#985dea"] ;
76 -> 80 ;
81 [label=<gini = 0.0<br/>samples = 33<br/>value = [0, 0, 0, 0, 33, 0]>, fillcolor="#8139e5"] ;
80 -> 81 ;
82 [label=<gini = 0.0<br/>samples = 6<br/>value = [0, 0, 0, 6, 0, 0]>, fillcolor="#399de5"] ;
80 -> 82 ;
83 [label=<389 &le; -1.0<br/>gini = 0.382<br/>samples = 35<br/>value = [0, 0, 0, 26, 9, 0]>, fillcolor="#7ebfee"] ;
75 -> 83 ;
84 [label=<41 &le; -0.168<br/>gini = 0.095<br/>samples = 20<br/>value = [0, 0, 0, 19, 1, 0]>, fillcolor="#43a2e6"] ;
83 -> 84 ;
85 [label=<41 &le; -0.168<br/>gini = 0.444<br/>samples = 3<br/>value = [0, 0, 0, 2, 1, 0]>, fillcolor="#9ccef2"] ;
84 -> 85 ;
86 [label=<gini = 0.0<br/>samples = 2<br/>value = [0, 0, 0, 2, 0, 0]>, fillcolor="#399de5"] ;
85 -> 86 ;
87 [label=<gini = 0.0<br/>samples = 1<br/>value = [0, 0, 0, 0, 1, 0]>, fillcolor="#8139e5"] ;
85 -> 87 ;
88 [label=<gini = 0.0<br/>samples = 17<br/>value = [0, 0, 0, 17, 0, 0]>, fillcolor="#399de5"] ;
84 -> 88 ;
89 [label=<52 &le; 0.942<br/>gini = 0.498<br/>samples = 15<br/>value = [0, 0, 0, 7, 8, 0]>, fillcolor="#efe6fc"] ;
83 -> 89 ;
90 [label=<52 &le; 0.933<br/>gini = 0.473<br/>samples = 13<br/>value = [0, 0, 0, 5, 8, 0]>, fillcolor="#d0b5f5"] ;
89 -> 90 ;
91 [label=<41 &le; -0.167<br/>gini = 0.469<br/>samples = 8<br/>value = [0, 0, 0, 5, 3, 0]>, fillcolor="#b0d8f5"] ;
90 -> 91 ;
92 [label=<41 &le; -0.168<br/>gini = 0.375<br/>samples = 4<br/>value = [0, 0, 0, 1, 3, 0]>, fillcolor="#ab7bee"] ;
91 -> 92 ;
93 [label=<gini = 0.0<br/>samples = 1<br/>value = [0, 0, 0, 1, 0, 0]>, fillcolor="#399de5"] ;
92 -> 93 ;
94 [label=<gini = 0.0<br/>samples = 3<br/>value = [0, 0, 0, 0, 3, 0]>, fillcolor="#8139e5"] ;
92 -> 94 ;
95 [label=<gini = 0.0<br/>samples = 4<br/>value = [0, 0, 0, 4, 0, 0]>, fillcolor="#399de5"] ;
91 -> 95 ;
96 [label=<gini = 0.0<br/>samples = 5<br/>value = [0, 0, 0, 0, 5, 0]>, fillcolor="#8139e5"] ;
90 -> 96 ;
97 [label=<gini = 0.0<br/>samples = 2<br/>value = [0, 0, 0, 2, 0, 0]>, fillcolor="#399de5"] ;
89 -> 97 ;
98 [label=<52 &le; 0.987<br/>gini = 0.158<br/>samples = 336<br/>value = [0, 0, 0, 29, 307, 0]>, fillcolor="#8d4ce7"] ;
74 -> 98 ;
99 [label=<389 &le; -1.0<br/>gini = 0.249<br/>samples = 199<br/>value = [0, 0, 0, 29, 170, 0]>, fillcolor="#965be9"] ;
98 -> 99 ;
100 [label=<52 &le; 0.986<br/>gini = 0.278<br/>samples = 6<br/>value = [0, 0, 0, 5, 1, 0]>, fillcolor="#61b1ea"] ;
99 -> 100 ;
101 [label=<gini = 0.0<br/>samples = 5<br/>value = [0, 0, 0, 5, 0, 0]>, fillcolor="#399de5"] ;
100 -> 101 ;
102 [label=<gini = 0.0<br/>samples = 1<br/>value = [0, 0, 0, 0, 1, 0]>, fillcolor="#8139e5"] ;
100 -> 102 ;
103 [label=<41 &le; -0.094<br/>gini = 0.218<br/>samples = 193<br/>value = [0, 0, 0, 24, 169, 0]>, fillcolor="#9355e9"] ;
99 -> 103 ;
104 [label=<52 &le; 0.985<br/>gini = 0.157<br/>samples = 175<br/>value = [0, 0, 0, 15, 160, 0]>, fillcolor="#8d4ce7"] ;
103 -> 104 ;
105 [label=<41 &le; -0.111<br/>gini = 0.08<br/>samples = 144<br/>value = [0, 0, 0, 6, 138, 0]>, fillcolor="#8642e6"] ;
104 -> 105 ;
106 [label=<389 &le; -1.0<br/>gini = 0.018<br/>samples = 111<br/>value = [0, 0, 0, 1, 110, 0]>, fillcolor="#823be5"] ;
105 -> 106 ;
107 [label=<gini = 0.0<br/>samples = 88<br/>value = [0, 0, 0, 0, 88, 0]>, fillcolor="#8139e5"] ;
106 -> 107 ;
108 [label=<389 &le; -1.0<br/>gini = 0.083<br/>samples = 23<br/>value = [0, 0, 0, 1, 22, 0]>, fillcolor="#8742e6"] ;
106 -> 108 ;
109 [label=<gini = 0.0<br/>samples = 1<br/>value = [0, 0, 0, 1, 0, 0]>, fillcolor="#399de5"] ;
108 -> 109 ;
110 [label=<gini = 0.0<br/>samples = 22<br/>value = [0, 0, 0, 0, 22, 0]>, fillcolor="#8139e5"] ;
108 -> 110 ;
111 [label=<41 &le; -0.111<br/>gini = 0.257<br/>samples = 33<br/>value = [0, 0, 0, 5, 28, 0]>, fillcolor="#985cea"] ;
105 -> 111 ;
112 [label=<gini = 0.0<br/>samples = 1<br/>value = [0, 0, 0, 1, 0, 0]>, fillcolor="#399de5"] ;
111 -> 112 ;
113 [label=<389 &le; -1.0<br/>gini = 0.219<br/>samples = 32<br/>value = [0, 0, 0, 4, 28, 0]>, fillcolor="#9355e9"] ;
111 -> 113 ;
114 [label=<gini = 0.0<br/>samples = 14<br/>value = [0, 0, 0, 0, 14, 0]>, fillcolor="#8139e5"] ;
113 -> 114 ;
115 [label=<389 &le; -1.0<br/>gini = 0.346<br/>samples = 18<br/>value = [0, 0, 0, 4, 14, 0]>, fillcolor="#a572ec"] ;
113 -> 115 ;
116 [label=<gini = 0.0<br/>samples = 1<br/>value = [0, 0, 0, 1, 0, 0]>, fillcolor="#399de5"] ;
115 -> 116 ;
117 [label=<52 &le; 0.956<br/>gini = 0.291<br/>samples = 17<br/>value = [0, 0, 0, 3, 14, 0]>, fillcolor="#9c63eb"] ;
115 -> 117 ;
118 [label=<gini = 0.0<br/>samples = 1<br/>value = [0, 0, 0, 1, 0, 0]>, fillcolor="#399de5"] ;
117 -> 118 ;
119 [label=<389 &le; -1.0<br/>gini = 0.219<br/>samples = 16<br/>value = [0, 0, 0, 2, 14, 0]>, fillcolor="#9355e9"] ;
117 -> 119 ;
120 [label=<389 &le; -1.0<br/>gini = 0.408<br/>samples = 7<br/>value = [0, 0, 0, 2, 5, 0]>, fillcolor="#b388ef"] ;
119 -> 120 ;
121 [label=<gini = 0.0<br/>samples = 4<br/>value = [0, 0, 0, 0, 4, 0]>, fillcolor="#8139e5"] ;
120 -> 121 ;
122 [label=<52 &le; 0.98<br/>gini = 0.444<br/>samples = 3<br/>value = [0, 0, 0, 2, 1, 0]>, fillcolor="#9ccef2"] ;
120 -> 122 ;
123 [label=<gini = 0.0<br/>samples = 2<br/>value = [0, 0, 0, 2, 0, 0]>, fillcolor="#399de5"] ;
122 -> 123 ;
124 [label=<gini = 0.0<br/>samples = 1<br/>value = [0, 0, 0, 0, 1, 0]>, fillcolor="#8139e5"] ;
122 -> 124 ;
125 [label=<gini = 0.0<br/>samples = 9<br/>value = [0, 0, 0, 0, 9, 0]>, fillcolor="#8139e5"] ;
119 -> 125 ;
126 [label=<52 &le; 0.985<br/>gini = 0.412<br/>samples = 31<br/>value = [0, 0, 0, 9, 22, 0]>, fillcolor="#b58af0"] ;
104 -> 126 ;
127 [label=<gini = 0.0<br/>samples = 4<br/>value = [0, 0, 0, 4, 0, 0]>, fillcolor="#399de5"] ;
126 -> 127 ;
128 [label=<41 &le; -0.126<br/>gini = 0.302<br/>samples = 27<br/>value = [0, 0, 0, 5, 22, 0]>, fillcolor="#9e66eb"] ;
126 -> 128 ;
129 [label=<gini = 0.0<br/>samples = 18<br/>value = [0, 0, 0, 0, 18, 0]>, fillcolor="#8139e5"] ;
128 -> 129 ;
130 [label=<41 &le; -0.121<br/>gini = 0.494<br/>samples = 9<br/>value = [0, 0, 0, 5, 4, 0]>, fillcolor="#d7ebfa"] ;
128 -> 130 ;
131 [label=<gini = 0.0<br/>samples = 4<br/>value = [0, 0, 0, 4, 0, 0]>, fillcolor="#399de5"] ;
130 -> 131 ;
132 [label=<52 &le; 0.987<br/>gini = 0.32<br/>samples = 5<br/>value = [0, 0, 0, 1, 4, 0]>, fillcolor="#a06aec"] ;
130 -> 132 ;
133 [label=<gini = 0.0<br/>samples = 4<br/>value = [0, 0, 0, 0, 4, 0]>, fillcolor="#8139e5"] ;
132 -> 133 ;
134 [label=<gini = 0.0<br/>samples = 1<br/>value = [0, 0, 0, 1, 0, 0]>, fillcolor="#399de5"] ;
132 -> 134 ;
135 [label=<52 &le; 0.979<br/>gini = 0.5<br/>samples = 18<br/>value = [0, 0, 0, 9, 9, 0]>, fillcolor="#ffffff"] ;
103 -> 135 ;
136 [label=<gini = 0.0<br/>samples = 8<br/>value = [0, 0, 0, 0, 8, 0]>, fillcolor="#8139e5"] ;
135 -> 136 ;
137 [label=<389 &le; -1.0<br/>gini = 0.18<br/>samples = 10<br/>value = [0, 0, 0, 9, 1, 0]>, fillcolor="#4fa8e8"] ;
135 -> 137 ;
138 [label=<52 &le; 0.98<br/>gini = 0.5<br/>samples = 2<br/>value = [0, 0, 0, 1, 1, 0]>, fillcolor="#ffffff"] ;
137 -> 138 ;
139 [label=<gini = 0.0<br/>samples = 1<br/>value = [0, 0, 0, 1, 0, 0]>, fillcolor="#399de5"] ;
138 -> 139 ;
140 [label=<gini = 0.0<br/>samples = 1<br/>value = [0, 0, 0, 0, 1, 0]>, fillcolor="#8139e5"] ;
138 -> 140 ;
141 [label=<gini = 0.0<br/>samples = 8<br/>value = [0, 0, 0, 8, 0, 0]>, fillcolor="#399de5"] ;
137 -> 141 ;
142 [label=<gini = 0.0<br/>samples = 137<br/>value = [0, 0, 0, 0, 137, 0]>, fillcolor="#8139e5"] ;
98 -> 142 ;
143 [label=<41 &le; 0.075<br/>gini = 0.238<br/>samples = 1364<br/>value = [0, 0, 0, 1176, 188, 0]>, fillcolor="#59ade9"] ;
3 -> 143 ;
144 [label=<52 &le; 0.962<br/>gini = 0.405<br/>samples = 652<br/>value = [0, 0, 0, 468, 184, 0]>, fillcolor="#87c4ef"] ;
143 -> 144 ;
145 [label=<389 &le; -0.997<br/>gini = 0.132<br/>samples = 141<br/>value = [0, 0, 0, 131, 10, 0]>, fillcolor="#48a4e7"] ;
144 -> 145 ;
146 [label=<41 &le; 0.068<br/>gini = 0.084<br/>samples = 136<br/>value = [0, 0, 0, 130, 6, 0]>, fillcolor="#42a2e6"] ;
145 -> 146 ;
147 [label=<389 &le; -1.0<br/>gini = 0.072<br/>samples = 134<br/>value = [0, 0, 0, 129, 5, 0]>, fillcolor="#41a1e6"] ;
146 -> 147 ;
148 [label=<gini = 0.0<br/>samples = 97<br/>value = [0, 0, 0, 97, 0, 0]>, fillcolor="#399de5"] ;
147 -> 148 ;
149 [label=<389 &le; -1.0<br/>gini = 0.234<br/>samples = 37<br/>value = [0, 0, 0, 32, 5, 0]>, fillcolor="#58ace9"] ;
147 -> 149 ;
150 [label=<gini = 0.0<br/>samples = 1<br/>value = [0, 0, 0, 0, 1, 0]>, fillcolor="#8139e5"] ;
149 -> 150 ;
151 [label=<41 &le; 0.006<br/>gini = 0.198<br/>samples = 36<br/>value = [0, 0, 0, 32, 4, 0]>, fillcolor="#52a9e8"] ;
149 -> 151 ;
152 [label=<41 &le; -0.002<br/>gini = 0.287<br/>samples = 23<br/>value = [0, 0, 0, 19, 4, 0]>, fillcolor="#63b2ea"] ;
151 -> 152 ;
153 [label=<52 &le; 0.888<br/>gini = 0.236<br/>samples = 22<br/>value = [0, 0, 0, 19, 3, 0]>, fillcolor="#58ace9"] ;
152 -> 153 ;
154 [label=<gini = 0.0<br/>samples = 1<br/>value = [0, 0, 0, 0, 1, 0]>, fillcolor="#8139e5"] ;
153 -> 154 ;
155 [label=<41 &le; -0.025<br/>gini = 0.172<br/>samples = 21<br/>value = [0, 0, 0, 19, 2, 0]>, fillcolor="#4ea7e8"] ;
153 -> 155 ;
156 [label=<gini = 0.0<br/>samples = 15<br/>value = [0, 0, 0, 15, 0, 0]>, fillcolor="#399de5"] ;
155 -> 156 ;
157 [label=<41 &le; -0.017<br/>gini = 0.444<br/>samples = 6<br/>value = [0, 0, 0, 4, 2, 0]>, fillcolor="#9ccef2"] ;
155 -> 157 ;
158 [label=<52 &le; 0.931<br/>gini = 0.444<br/>samples = 3<br/>value = [0, 0, 0, 1, 2, 0]>, fillcolor="#c09cf2"] ;
157 -> 158 ;
159 [label=<gini = 0.0<br/>samples = 1<br/>value = [0, 0, 0, 1, 0, 0]>, fillcolor="#399de5"] ;
158 -> 159 ;
160 [label=<gini = 0.0<br/>samples = 2<br/>value = [0, 0, 0, 0, 2, 0]>, fillcolor="#8139e5"] ;
158 -> 160 ;
161 [label=<gini = 0.0<br/>samples = 3<br/>value = [0, 0, 0, 3, 0, 0]>, fillcolor="#399de5"] ;
157 -> 161 ;
162 [label=<gini = 0.0<br/>samples = 1<br/>value = [0, 0, 0, 0, 1, 0]>, fillcolor="#8139e5"] ;
152 -> 162 ;
163 [label=<gini = 0.0<br/>samples = 13<br/>value = [0, 0, 0, 13, 0, 0]>, fillcolor="#399de5"] ;
151 -> 163 ;
164 [label=<41 &le; 0.071<br/>gini = 0.5<br/>samples = 2<br/>value = [0, 0, 0, 1, 1, 0]>, fillcolor="#ffffff"] ;
146 -> 164 ;
165 [label=<gini = 0.0<br/>samples = 1<br/>value = [0, 0, 0, 0, 1, 0]>, fillcolor="#8139e5"] ;
164 -> 165 ;
166 [label=<gini = 0.0<br/>samples = 1<br/>value = [0, 0, 0, 1, 0, 0]>, fillcolor="#399de5"] ;
164 -> 166 ;
167 [label=<389 &le; -0.984<br/>gini = 0.32<br/>samples = 5<br/>value = [0, 0, 0, 1, 4, 0]>, fillcolor="#a06aec"] ;
145 -> 167 ;
168 [label=<gini = 0.0<br/>samples = 4<br/>value = [0, 0, 0, 0, 4, 0]>, fillcolor="#8139e5"] ;
167 -> 168 ;
169 [label=<gini = 0.0<br/>samples = 1<br/>value = [0, 0, 0, 1, 0, 0]>, fillcolor="#399de5"] ;
167 -> 169 ;
170 [label=<52 &le; 0.996<br/>gini = 0.449<br/>samples = 511<br/>value = [0, 0, 0, 337, 174, 0]>, fillcolor="#9fd0f2"] ;
144 -> 170 ;
171 [label=<52 &le; 0.97<br/>gini = 0.432<br/>samples = 482<br/>value = [0, 0, 0, 330, 152, 0]>, fillcolor="#94caf1"] ;
170 -> 171 ;
172 [label=<41 &le; -0.015<br/>gini = 0.42<br/>samples = 30<br/>value = [0, 0, 0, 9, 21, 0]>, fillcolor="#b78ef0"] ;
171 -> 172 ;
173 [label=<gini = 0.0<br/>samples = 7<br/>value = [0, 0, 0, 0, 7, 0]>, fillcolor="#8139e5"] ;
172 -> 173 ;
174 [label=<41 &le; 0.06<br/>gini = 0.476<br/>samples = 23<br/>value = [0, 0, 0, 9, 14, 0]>, fillcolor="#d2b8f6"] ;
172 -> 174 ;
175 [label=<41 &le; -0.001<br/>gini = 0.245<br/>samples = 7<br/>value = [0, 0, 0, 6, 1, 0]>, fillcolor="#5aade9"] ;
174 -> 175 ;
176 [label=<52 &le; 0.967<br/>gini = 0.5<br/>samples = 2<br/>value = [0, 0, 0, 1, 1, 0]>, fillcolor="#ffffff"] ;
175 -> 176 ;
177 [label=<gini = 0.0<br/>samples = 1<br/>value = [0, 0, 0, 1, 0, 0]>, fillcolor="#399de5"] ;
176 -> 177 ;
178 [label=<gini = 0.0<br/>samples = 1<br/>value = [0, 0, 0, 0, 1, 0]>, fillcolor="#8139e5"] ;
176 -> 178 ;
179 [label=<gini = 0.0<br/>samples = 5<br/>value = [0, 0, 0, 5, 0, 0]>, fillcolor="#399de5"] ;
175 -> 179 ;
180 [label=<52 &le; 0.968<br/>gini = 0.305<br/>samples = 16<br/>value = [0, 0, 0, 3, 13, 0]>, fillcolor="#9e67eb"] ;
174 -> 180 ;
181 [label=<41 &le; 0.067<br/>gini = 0.133<br/>samples = 14<br/>value = [0, 0, 0, 1, 13, 0]>, fillcolor="#8b48e7"] ;
180 -> 181 ;
182 [label=<41 &le; 0.067<br/>gini = 0.32<br/>samples = 5<br/>value = [0, 0, 0, 1, 4, 0]>, fillcolor="#a06aec"] ;
181 -> 182 ;
183 [label=<gini = 0.0<br/>samples = 4<br/>value = [0, 0, 0, 0, 4, 0]>, fillcolor="#8139e5"] ;
182 -> 183 ;
184 [label=<gini = 0.0<br/>samples = 1<br/>value = [0, 0, 0, 1, 0, 0]>, fillcolor="#399de5"] ;
182 -> 184 ;
185 [label=<gini = 0.0<br/>samples = 9<br/>value = [0, 0, 0, 0, 9, 0]>, fillcolor="#8139e5"] ;
181 -> 185 ;
186 [label=<gini = 0.0<br/>samples = 2<br/>value = [0, 0, 0, 2, 0, 0]>, fillcolor="#399de5"] ;
180 -> 186 ;
187 [label=<52 &le; 0.987<br/>gini = 0.412<br/>samples = 452<br/>value = [0, 0, 0, 321, 131, 0]>, fillcolor="#8ac5f0"] ;
171 -> 187 ;
188 [label=<52 &le; 0.982<br/>gini = 0.339<br/>samples = 236<br/>value = [0, 0, 0, 185, 51, 0]>, fillcolor="#70b8ec"] ;
187 -> 188 ;
189 [label=<52 &le; 0.979<br/>gini = 0.41<br/>samples = 146<br/>value = [0, 0, 0, 104, 42, 0]>, fillcolor="#89c5f0"] ;
188 -> 189 ;
190 [label=<41 &le; 0.007<br/>gini = 0.325<br/>samples = 98<br/>value = [0, 0, 0, 78, 20, 0]>, fillcolor="#6cb6ec"] ;
189 -> 190 ;
191 [label=<41 &le; -0.002<br/>gini = 0.417<br/>samples = 64<br/>value = [0, 0, 0, 45, 19, 0]>, fillcolor="#8dc6f0"] ;
190 -> 191 ;
192 [label=<52 &le; 0.972<br/>gini = 0.357<br/>samples = 56<br/>value = [0, 0, 0, 43, 13, 0]>, fillcolor="#75bbed"] ;
191 -> 192 ;
193 [label=<41 &le; -0.018<br/>gini = 0.444<br/>samples = 6<br/>value = [0, 0, 0, 2, 4, 0]>, fillcolor="#c09cf2"] ;
192 -> 193 ;
194 [label=<gini = 0.0<br/>samples = 2<br/>value = [0, 0, 0, 2, 0, 0]>, fillcolor="#399de5"] ;
193 -> 194 ;
195 [label=<gini = 0.0<br/>samples = 4<br/>value = [0, 0, 0, 0, 4, 0]>, fillcolor="#8139e5"] ;
193 -> 195 ;
196 [label=<52 &le; 0.973<br/>gini = 0.295<br/>samples = 50<br/>value = [0, 0, 0, 41, 9, 0]>, fillcolor="#64b3eb"] ;
192 -> 196 ;
197 [label=<gini = 0.0<br/>samples = 16<br/>value = [0, 0, 0, 16, 0, 0]>, fillcolor="#399de5"] ;
196 -> 197 ;
198 [label=<52 &le; 0.974<br/>gini = 0.389<br/>samples = 34<br/>value = [0, 0, 0, 25, 9, 0]>, fillcolor="#80c0ee"] ;
196 -> 198 ;
199 [label=<gini = 0.0<br/>samples = 4<br/>value = [0, 0, 0, 0, 4, 0]>, fillcolor="#8139e5"] ;
198 -> 199 ;
200 [label=<41 &le; -0.026<br/>gini = 0.278<br/>samples = 30<br/>value = [0, 0, 0, 25, 5, 0]>, fillcolor="#61b1ea"] ;
198 -> 200 ;
201 [label=<41 &le; -0.033<br/>gini = 0.388<br/>samples = 19<br/>value = [0, 0, 0, 14, 5, 0]>, fillcolor="#80c0ee"] ;
200 -> 201 ;
202 [label=<52 &le; 0.979<br/>gini = 0.219<br/>samples = 16<br/>value = [0, 0, 0, 14, 2, 0]>, fillcolor="#55abe9"] ;
201 -> 202 ;
203 [label=<389 &le; -1.0<br/>gini = 0.124<br/>samples = 15<br/>value = [0, 0, 0, 14, 1, 0]>, fillcolor="#47a4e7"] ;
202 -> 203 ;
204 [label=<gini = 0.0<br/>samples = 12<br/>value = [0, 0, 0, 12, 0, 0]>, fillcolor="#399de5"] ;
203 -> 204 ;
205 [label=<389 &le; -0.999<br/>gini = 0.444<br/>samples = 3<br/>value = [0, 0, 0, 2, 1, 0]>, fillcolor="#9ccef2"] ;
203 -> 205 ;
206 [label=<gini = 0.0<br/>samples = 1<br/>value = [0, 0, 0, 0, 1, 0]>, fillcolor="#8139e5"] ;
205 -> 206 ;
207 [label=<gini = 0.0<br/>samples = 2<br/>value = [0, 0, 0, 2, 0, 0]>, fillcolor="#399de5"] ;
205 -> 207 ;
208 [label=<gini = 0.0<br/>samples = 1<br/>value = [0, 0, 0, 0, 1, 0]>, fillcolor="#8139e5"] ;
202 -> 208 ;
209 [label=<gini = 0.0<br/>samples = 3<br/>value = [0, 0, 0, 0, 3, 0]>, fillcolor="#8139e5"] ;
201 -> 209 ;
210 [label=<gini = 0.0<br/>samples = 11<br/>value = [0, 0, 0, 11, 0, 0]>, fillcolor="#399de5"] ;
200 -> 210 ;
211 [label=<389 &le; -0.999<br/>gini = 0.375<br/>samples = 8<br/>value = [0, 0, 0, 2, 6, 0]>, fillcolor="#ab7bee"] ;
191 -> 211 ;
212 [label=<gini = 0.0<br/>samples = 6<br/>value = [0, 0, 0, 0, 6, 0]>, fillcolor="#8139e5"] ;
211 -> 212 ;
213 [label=<gini = 0.0<br/>samples = 2<br/>value = [0, 0, 0, 2, 0, 0]>, fillcolor="#399de5"] ;
211 -> 213 ;
214 [label=<389 &le; -1.0<br/>gini = 0.057<br/>samples = 34<br/>value = [0, 0, 0, 33, 1, 0]>, fillcolor="#3fa0e6"] ;
190 -> 214 ;
215 [label=<389 &le; -1.0<br/>gini = 0.245<br/>samples = 7<br/>value = [0, 0, 0, 6, 1, 0]>, fillcolor="#5aade9"] ;
214 -> 215 ;
216 [label=<gini = 0.0<br/>samples = 6<br/>value = [0, 0, 0, 6, 0, 0]>, fillcolor="#399de5"] ;
215 -> 216 ;
217 [label=<gini = 0.0<br/>samples = 1<br/>value = [0, 0, 0, 0, 1, 0]>, fillcolor="#8139e5"] ;
215 -> 217 ;
218 [label=<gini = 0.0<br/>samples = 27<br/>value = [0, 0, 0, 27, 0, 0]>, fillcolor="#399de5"] ;
214 -> 218 ;
219 [label=<41 &le; 0.044<br/>gini = 0.497<br/>samples = 48<br/>value = [0, 0, 0, 26, 22, 0]>, fillcolor="#e1f0fb"] ;
189 -> 219 ;
220 [label=<389 &le; -1.0<br/>gini = 0.142<br/>samples = 13<br/>value = [0, 0, 0, 12, 1, 0]>, fillcolor="#49a5e7"] ;
219 -> 220 ;
221 [label=<gini = 0.0<br/>samples = 11<br/>value = [0, 0, 0, 11, 0, 0]>, fillcolor="#399de5"] ;
220 -> 221 ;
222 [label=<389 &le; -0.999<br/>gini = 0.5<br/>samples = 2<br/>value = [0, 0, 0, 1, 1, 0]>, fillcolor="#ffffff"] ;
220 -> 222 ;
223 [label=<gini = 0.0<br/>samples = 1<br/>value = [0, 0, 0, 0, 1, 0]>, fillcolor="#8139e5"] ;
222 -> 223 ;
224 [label=<gini = 0.0<br/>samples = 1<br/>value = [0, 0, 0, 1, 0, 0]>, fillcolor="#399de5"] ;
222 -> 224 ;
225 [label=<41 &le; 0.064<br/>gini = 0.48<br/>samples = 35<br/>value = [0, 0, 0, 14, 21, 0]>, fillcolor="#d5bdf6"] ;
219 -> 225 ;
226 [label=<389 &le; -1.0<br/>gini = 0.287<br/>samples = 23<br/>value = [0, 0, 0, 4, 19, 0]>, fillcolor="#9c63ea"] ;
225 -> 226 ;
227 [label=<gini = 0.0<br/>samples = 1<br/>value = [0, 0, 0, 1, 0, 0]>, fillcolor="#399de5"] ;
226 -> 227 ;
228 [label=<389 &le; -1.0<br/>gini = 0.236<br/>samples = 22<br/>value = [0, 0, 0, 3, 19, 0]>, fillcolor="#9558e9"] ;
226 -> 228 ;
229 [label=<gini = 0.0<br/>samples = 10<br/>value = [0, 0, 0, 0, 10, 0]>, fillcolor="#8139e5"] ;
228 -> 229 ;
230 [label=<389 &le; -1.0<br/>gini = 0.375<br/>samples = 12<br/>value = [0, 0, 0, 3, 9, 0]>, fillcolor="#ab7bee"] ;
228 -> 230 ;
231 [label=<gini = 0.0<br/>samples = 1<br/>value = [0, 0, 0, 1, 0, 0]>, fillcolor="#399de5"] ;
230 -> 231 ;
232 [label=<389 &le; -1.0<br/>gini = 0.298<br/>samples = 11<br/>value = [0, 0, 0, 2, 9, 0]>, fillcolor="#9d65eb"] ;
230 -> 232 ;
233 [label=<gini = 0.0<br/>samples = 5<br/>value = [0, 0, 0, 0, 5, 0]>, fillcolor="#8139e5"] ;
232 -> 233 ;
234 [label=<41 &le; 0.058<br/>gini = 0.444<br/>samples = 6<br/>value = [0, 0, 0, 2, 4, 0]>, fillcolor="#c09cf2"] ;
232 -> 234 ;
235 [label=<gini = 0.0<br/>samples = 3<br/>value = [0, 0, 0, 0, 3, 0]>, fillcolor="#8139e5"] ;
234 -> 235 ;
236 [label=<389 &le; -1.0<br/>gini = 0.444<br/>samples = 3<br/>value = [0, 0, 0, 2, 1, 0]>, fillcolor="#9ccef2"] ;
234 -> 236 ;
237 [label=<gini = 0.0<br/>samples = 2<br/>value = [0, 0, 0, 2, 0, 0]>, fillcolor="#399de5"] ;
236 -> 237 ;
238 [label=<gini = 0.0<br/>samples = 1<br/>value = [0, 0, 0, 0, 1, 0]>, fillcolor="#8139e5"] ;
236 -> 238 ;
239 [label=<52 &le; 0.98<br/>gini = 0.278<br/>samples = 12<br/>value = [0, 0, 0, 10, 2, 0]>, fillcolor="#61b1ea"] ;
225 -> 239 ;
240 [label=<52 &le; 0.98<br/>gini = 0.444<br/>samples = 6<br/>value = [0, 0, 0, 4, 2, 0]>, fillcolor="#9ccef2"] ;
239 -> 240 ;
241 [label=<gini = 0.0<br/>samples = 4<br/>value = [0, 0, 0, 4, 0, 0]>, fillcolor="#399de5"] ;
240 -> 241 ;
242 [label=<gini = 0.0<br/>samples = 2<br/>value = [0, 0, 0, 0, 2, 0]>, fillcolor="#8139e5"] ;
240 -> 242 ;
243 [label=<gini = 0.0<br/>samples = 6<br/>value = [0, 0, 0, 6, 0, 0]>, fillcolor="#399de5"] ;
239 -> 243 ;
244 [label=<389 &le; -1.0<br/>gini = 0.18<br/>samples = 90<br/>value = [0, 0, 0, 81, 9, 0]>, fillcolor="#4fa8e8"] ;
188 -> 244 ;
245 [label=<41 &le; 0.062<br/>gini = 0.079<br/>samples = 73<br/>value = [0, 0, 0, 70, 3, 0]>, fillcolor="#41a1e6"] ;
244 -> 245 ;
246 [label=<389 &le; -1.0<br/>gini = 0.035<br/>samples = 56<br/>value = [0, 0, 0, 55, 1, 0]>, fillcolor="#3d9fe5"] ;
245 -> 246 ;
247 [label=<389 &le; -1.0<br/>gini = 0.219<br/>samples = 8<br/>value = [0, 0, 0, 7, 1, 0]>, fillcolor="#55abe9"] ;
246 -> 247 ;
248 [label=<gini = 0.0<br/>samples = 7<br/>value = [0, 0, 0, 7, 0, 0]>, fillcolor="#399de5"] ;
247 -> 248 ;
249 [label=<gini = 0.0<br/>samples = 1<br/>value = [0, 0, 0, 0, 1, 0]>, fillcolor="#8139e5"] ;
247 -> 249 ;
250 [label=<gini = 0.0<br/>samples = 48<br/>value = [0, 0, 0, 48, 0, 0]>, fillcolor="#399de5"] ;
246 -> 250 ;
251 [label=<41 &le; 0.063<br/>gini = 0.208<br/>samples = 17<br/>value = [0, 0, 0, 15, 2, 0]>, fillcolor="#53aae8"] ;
245 -> 251 ;
252 [label=<gini = 0.0<br/>samples = 1<br/>value = [0, 0, 0, 0, 1, 0]>, fillcolor="#8139e5"] ;
251 -> 252 ;
253 [label=<52 &le; 0.982<br/>gini = 0.117<br/>samples = 16<br/>value = [0, 0, 0, 15, 1, 0]>, fillcolor="#46a4e7"] ;
251 -> 253 ;
254 [label=<389 &le; -1.0<br/>gini = 0.444<br/>samples = 3<br/>value = [0, 0, 0, 2, 1, 0]>, fillcolor="#9ccef2"] ;
253 -> 254 ;
255 [label=<gini = 0.0<br/>samples = 2<br/>value = [0, 0, 0, 2, 0, 0]>, fillcolor="#399de5"] ;
254 -> 255 ;
256 [label=<gini = 0.0<br/>samples = 1<br/>value = [0, 0, 0, 0, 1, 0]>, fillcolor="#8139e5"] ;
254 -> 256 ;
257 [label=<gini = 0.0<br/>samples = 13<br/>value = [0, 0, 0, 13, 0, 0]>, fillcolor="#399de5"] ;
253 -> 257 ;
258 [label=<389 &le; -1.0<br/>gini = 0.457<br/>samples = 17<br/>value = [0, 0, 0, 11, 6, 0]>, fillcolor="#a5d2f3"] ;
244 -> 258 ;
259 [label=<41 &le; -0.036<br/>gini = 0.408<br/>samples = 7<br/>value = [0, 0, 0, 2, 5, 0]>, fillcolor="#b388ef"] ;
258 -> 259 ;
260 [label=<gini = 0.0<br/>samples = 1<br/>value = [0, 0, 0, 1, 0, 0]>, fillcolor="#399de5"] ;
259 -> 260 ;
261 [label=<52 &le; 0.984<br/>gini = 0.278<br/>samples = 6<br/>value = [0, 0, 0, 1, 5, 0]>, fillcolor="#9a61ea"] ;
259 -> 261 ;
262 [label=<gini = 0.0<br/>samples = 1<br/>value = [0, 0, 0, 1, 0, 0]>, fillcolor="#399de5"] ;
261 -> 262 ;
263 [label=<gini = 0.0<br/>samples = 5<br/>value = [0, 0, 0, 0, 5, 0]>, fillcolor="#8139e5"] ;
261 -> 263 ;
264 [label=<41 &le; 0.028<br/>gini = 0.18<br/>samples = 10<br/>value = [0, 0, 0, 9, 1, 0]>, fillcolor="#4fa8e8"] ;
258 -> 264 ;
265 [label=<gini = 0.0<br/>samples = 7<br/>value = [0, 0, 0, 7, 0, 0]>, fillcolor="#399de5"] ;
264 -> 265 ;
266 [label=<389 &le; -0.999<br/>gini = 0.444<br/>samples = 3<br/>value = [0, 0, 0, 2, 1, 0]>, fillcolor="#9ccef2"] ;
264 -> 266 ;
267 [label=<gini = 0.0<br/>samples = 1<br/>value = [0, 0, 0, 0, 1, 0]>, fillcolor="#8139e5"] ;
266 -> 267 ;
268 [label=<gini = 0.0<br/>samples = 2<br/>value = [0, 0, 0, 2, 0, 0]>, fillcolor="#399de5"] ;
266 -> 268 ;
269 [label=<41 &le; 0.029<br/>gini = 0.466<br/>samples = 216<br/>value = [0, 0, 0, 136, 80, 0]>, fillcolor="#add7f4"] ;
187 -> 269 ;
270 [label=<41 &le; 0.016<br/>gini = 0.489<br/>samples = 186<br/>value = [0, 0, 0, 107, 79, 0]>, fillcolor="#cbe5f8"] ;
269 -> 270 ;
271 [label=<41 &le; -0.065<br/>gini = 0.461<br/>samples = 161<br/>value = [0, 0, 0, 103, 58, 0]>, fillcolor="#a8d4f4"] ;
270 -> 271 ;
272 [label=<52 &le; 0.995<br/>gini = 0.332<br/>samples = 19<br/>value = [0, 0, 0, 4, 15, 0]>, fillcolor="#a36eec"] ;
271 -> 272 ;
273 [label=<389 &le; -1.0<br/>gini = 0.208<br/>samples = 17<br/>value = [0, 0, 0, 2, 15, 0]>, fillcolor="#9253e8"] ;
272 -> 273 ;
274 [label=<52 &le; 0.992<br/>gini = 0.408<br/>samples = 7<br/>value = [0, 0, 0, 2, 5, 0]>, fillcolor="#b388ef"] ;
273 -> 274 ;
275 [label=<gini = 0.0<br/>samples = 1<br/>value = [0, 0, 0, 1, 0, 0]>, fillcolor="#399de5"] ;
274 -> 275 ;
276 [label=<41 &le; -0.083<br/>gini = 0.278<br/>samples = 6<br/>value = [0, 0, 0, 1, 5, 0]>, fillcolor="#9a61ea"] ;
274 -> 276 ;
277 [label=<gini = 0.0<br/>samples = 1<br/>value = [0, 0, 0, 1, 0, 0]>, fillcolor="#399de5"] ;
276 -> 277 ;
278 [label=<gini = 0.0<br/>samples = 5<br/>value = [0, 0, 0, 0, 5, 0]>, fillcolor="#8139e5"] ;
276 -> 278 ;
279 [label=<gini = 0.0<br/>samples = 10<br/>value = [0, 0, 0, 0, 10, 0]>, fillcolor="#8139e5"] ;
273 -> 279 ;
280 [label=<gini = 0.0<br/>samples = 2<br/>value = [0, 0, 0, 2, 0, 0]>, fillcolor="#399de5"] ;
272 -> 280 ;
281 [label=<41 &le; -0.03<br/>gini = 0.422<br/>samples = 142<br/>value = [0, 0, 0, 99, 43, 0]>, fillcolor="#8fc8f0"] ;
271 -> 281 ;
282 [label=<389 &le; -0.998<br/>gini = 0.163<br/>samples = 56<br/>value = [0, 0, 0, 51, 5, 0]>, fillcolor="#4ca7e8"] ;
281 -> 282 ;
283 [label=<41 &le; -0.049<br/>gini = 0.073<br/>samples = 53<br/>value = [0, 0, 0, 51, 2, 0]>, fillcolor="#41a1e6"] ;
282 -> 283 ;
284 [label=<41 &le; -0.049<br/>gini = 0.208<br/>samples = 17<br/>value = [0, 0, 0, 15, 2, 0]>, fillcolor="#53aae8"] ;
283 -> 284 ;
285 [label=<52 &le; 0.995<br/>gini = 0.117<br/>samples = 16<br/>value = [0, 0, 0, 15, 1, 0]>, fillcolor="#46a4e7"] ;
284 -> 285 ;
286 [label=<gini = 0.0<br/>samples = 12<br/>value = [0, 0, 0, 12, 0, 0]>, fillcolor="#399de5"] ;
285 -> 286 ;
287 [label=<52 &le; 0.995<br/>gini = 0.375<br/>samples = 4<br/>value = [0, 0, 0, 3, 1, 0]>, fillcolor="#7bbeee"] ;
285 -> 287 ;
288 [label=<gini = 0.0<br/>samples = 1<br/>value = [0, 0, 0, 0, 1, 0]>, fillcolor="#8139e5"] ;
287 -> 288 ;
289 [label=<gini = 0.0<br/>samples = 3<br/>value = [0, 0, 0, 3, 0, 0]>, fillcolor="#399de5"] ;
287 -> 289 ;
290 [label=<gini = 0.0<br/>samples = 1<br/>value = [0, 0, 0, 0, 1, 0]>, fillcolor="#8139e5"] ;
284 -> 290 ;
291 [label=<gini = 0.0<br/>samples = 36<br/>value = [0, 0, 0, 36, 0, 0]>, fillcolor="#399de5"] ;
283 -> 291 ;
292 [label=<gini = 0.0<br/>samples = 3<br/>value = [0, 0, 0, 0, 3, 0]>, fillcolor="#8139e5"] ;
282 -> 292 ;
293 [label=<41 &le; -0.009<br/>gini = 0.493<br/>samples = 86<br/>value = [0, 0, 0, 48, 38, 0]>, fillcolor="#d6ebfa"] ;
281 -> 293 ;
294 [label=<389 &le; -1.0<br/>gini = 0.46<br/>samples = 53<br/>value = [0, 0, 0, 19, 34, 0]>, fillcolor="#c7a8f4"] ;
293 -> 294 ;
295 [label=<41 &le; -0.025<br/>gini = 0.133<br/>samples = 14<br/>value = [0, 0, 0, 1, 13, 0]>, fillcolor="#8b48e7"] ;
294 -> 295 ;
296 [label=<389 &le; -1.0<br/>gini = 0.444<br/>samples = 3<br/>value = [0, 0, 0, 1, 2, 0]>, fillcolor="#c09cf2"] ;
295 -> 296 ;
297 [label=<gini = 0.0<br/>samples = 2<br/>value = [0, 0, 0, 0, 2, 0]>, fillcolor="#8139e5"] ;
296 -> 297 ;
298 [label=<gini = 0.0<br/>samples = 1<br/>value = [0, 0, 0, 1, 0, 0]>, fillcolor="#399de5"] ;
296 -> 298 ;
299 [label=<gini = 0.0<br/>samples = 11<br/>value = [0, 0, 0, 0, 11, 0]>, fillcolor="#8139e5"] ;
295 -> 299 ;
300 [label=<52 &le; 0.994<br/>gini = 0.497<br/>samples = 39<br/>value = [0, 0, 0, 18, 21, 0]>, fillcolor="#ede3fb"] ;
294 -> 300 ;
301 [label=<389 &le; -1.0<br/>gini = 0.496<br/>samples = 33<br/>value = [0, 0, 0, 18, 15, 0]>, fillcolor="#deeffb"] ;
300 -> 301 ;
302 [label=<41 &le; -0.022<br/>gini = 0.471<br/>samples = 29<br/>value = [0, 0, 0, 18, 11, 0]>, fillcolor="#b2d9f5"] ;
301 -> 302 ;
303 [label=<389 &le; -1.0<br/>gini = 0.298<br/>samples = 11<br/>value = [0, 0, 0, 9, 2, 0]>, fillcolor="#65b3eb"] ;
302 -> 303 ;
304 [label=<gini = 0.0<br/>samples = 4<br/>value = [0, 0, 0, 4, 0, 0]>, fillcolor="#399de5"] ;
303 -> 304 ;
305 [label=<389 &le; -1.0<br/>gini = 0.408<br/>samples = 7<br/>value = [0, 0, 0, 5, 2, 0]>, fillcolor="#88c4ef"] ;
303 -> 305 ;
306 [label=<41 &le; -0.023<br/>gini = 0.444<br/>samples = 3<br/>value = [0, 0, 0, 1, 2, 0]>, fillcolor="#c09cf2"] ;
305 -> 306 ;
307 [label=<gini = 0.0<br/>samples = 2<br/>value = [0, 0, 0, 0, 2, 0]>, fillcolor="#8139e5"] ;
306 -> 307 ;
308 [label=<gini = 0.0<br/>samples = 1<br/>value = [0, 0, 0, 1, 0, 0]>, fillcolor="#399de5"] ;
306 -> 308 ;
309 [label=<gini = 0.0<br/>samples = 4<br/>value = [0, 0, 0, 4, 0, 0]>, fillcolor="#399de5"] ;
305 -> 309 ;
310 [label=<41 &le; -0.021<br/>gini = 0.5<br/>samples = 18<br/>value = [0, 0, 0, 9, 9, 0]>, fillcolor="#ffffff"] ;
302 -> 310 ;
311 [label=<52 &le; 0.988<br/>gini = 0.32<br/>samples = 5<br/>value = [0, 0, 0, 1, 4, 0]>, fillcolor="#a06aec"] ;
310 -> 311 ;
312 [label=<gini = 0.0<br/>samples = 1<br/>value = [0, 0, 0, 1, 0, 0]>, fillcolor="#399de5"] ;
311 -> 312 ;
313 [label=<gini = 0.0<br/>samples = 4<br/>value = [0, 0, 0, 0, 4, 0]>, fillcolor="#8139e5"] ;
311 -> 313 ;
314 [label=<52 &le; 0.99<br/>gini = 0.473<br/>samples = 13<br/>value = [0, 0, 0, 8, 5, 0]>, fillcolor="#b5daf5"] ;
310 -> 314 ;
315 [label=<41 &le; -0.02<br/>gini = 0.408<br/>samples = 7<br/>value = [0, 0, 0, 2, 5, 0]>, fillcolor="#b388ef"] ;
314 -> 315 ;
316 [label=<gini = 0.0<br/>samples = 1<br/>value = [0, 0, 0, 1, 0, 0]>, fillcolor="#399de5"] ;
315 -> 316 ;
317 [label=<52 &le; 0.987<br/>gini = 0.278<br/>samples = 6<br/>value = [0, 0, 0, 1, 5, 0]>, fillcolor="#9a61ea"] ;
315 -> 317 ;
318 [label=<gini = 0.0<br/>samples = 1<br/>value = [0, 0, 0, 1, 0, 0]>, fillcolor="#399de5"] ;
317 -> 318 ;
319 [label=<gini = 0.0<br/>samples = 5<br/>value = [0, 0, 0, 0, 5, 0]>, fillcolor="#8139e5"] ;
317 -> 319 ;
320 [label=<gini = 0.0<br/>samples = 6<br/>value = [0, 0, 0, 6, 0, 0]>, fillcolor="#399de5"] ;
314 -> 320 ;
321 [label=<gini = 0.0<br/>samples = 4<br/>value = [0, 0, 0, 0, 4, 0]>, fillcolor="#8139e5"] ;
301 -> 321 ;
322 [label=<gini = 0.0<br/>samples = 6<br/>value = [0, 0, 0, 0, 6, 0]>, fillcolor="#8139e5"] ;
300 -> 322 ;
323 [label=<41 &le; 0.011<br/>gini = 0.213<br/>samples = 33<br/>value = [0, 0, 0, 29, 4, 0]>, fillcolor="#54abe9"] ;
293 -> 323 ;
324 [label=<52 &le; 0.99<br/>gini = 0.08<br/>samples = 24<br/>value = [0, 0, 0, 23, 1, 0]>, fillcolor="#42a1e6"] ;
323 -> 324 ;
325 [label=<52 &le; 0.989<br/>gini = 0.245<br/>samples = 7<br/>value = [0, 0, 0, 6, 1, 0]>, fillcolor="#5aade9"] ;
324 -> 325 ;
326 [label=<gini = 0.0<br/>samples = 6<br/>value = [0, 0, 0, 6, 0, 0]>, fillcolor="#399de5"] ;
325 -> 326 ;
327 [label=<gini = 0.0<br/>samples = 1<br/>value = [0, 0, 0, 0, 1, 0]>, fillcolor="#8139e5"] ;
325 -> 327 ;
328 [label=<gini = 0.0<br/>samples = 17<br/>value = [0, 0, 0, 17, 0, 0]>, fillcolor="#399de5"] ;
324 -> 328 ;
329 [label=<52 &le; 0.992<br/>gini = 0.444<br/>samples = 9<br/>value = [0, 0, 0, 6, 3, 0]>, fillcolor="#9ccef2"] ;
323 -> 329 ;
330 [label=<gini = 0.0<br/>samples = 5<br/>value = [0, 0, 0, 5, 0, 0]>, fillcolor="#399de5"] ;
329 -> 330 ;
331 [label=<389 &le; -1.0<br/>gini = 0.375<br/>samples = 4<br/>value = [0, 0, 0, 1, 3, 0]>, fillcolor="#ab7bee"] ;
329 -> 331 ;
332 [label=<gini = 0.0<br/>samples = 2<br/>value = [0, 0, 0, 0, 2, 0]>, fillcolor="#8139e5"] ;
331 -> 332 ;
333 [label=<52 &le; 0.992<br/>gini = 0.5<br/>samples = 2<br/>value = [0, 0, 0, 1, 1, 0]>, fillcolor="#ffffff"] ;
331 -> 333 ;
334 [label=<gini = 0.0<br/>samples = 1<br/>value = [0, 0, 0, 1, 0, 0]>, fillcolor="#399de5"] ;
333 -> 334 ;
335 [label=<gini = 0.0<br/>samples = 1<br/>value = [0, 0, 0, 0, 1, 0]>, fillcolor="#8139e5"] ;
333 -> 335 ;
336 [label=<52 &le; 0.99<br/>gini = 0.269<br/>samples = 25<br/>value = [0, 0, 0, 4, 21, 0]>, fillcolor="#995fea"] ;
270 -> 336 ;
337 [label=<52 &le; 0.989<br/>gini = 0.463<br/>samples = 11<br/>value = [0, 0, 0, 4, 7, 0]>, fillcolor="#c9aaf4"] ;
336 -> 337 ;
338 [label=<389 &le; -1.0<br/>gini = 0.219<br/>samples = 8<br/>value = [0, 0, 0, 1, 7, 0]>, fillcolor="#9355e9"] ;
337 -> 338 ;
339 [label=<gini = 0.0<br/>samples = 6<br/>value = [0, 0, 0, 0, 6, 0]>, fillcolor="#8139e5"] ;
338 -> 339 ;
340 [label=<52 &le; 0.989<br/>gini = 0.5<br/>samples = 2<br/>value = [0, 0, 0, 1, 1, 0]>, fillcolor="#ffffff"] ;
338 -> 340 ;
341 [label=<gini = 0.0<br/>samples = 1<br/>value = [0, 0, 0, 1, 0, 0]>, fillcolor="#399de5"] ;
340 -> 341 ;
342 [label=<gini = 0.0<br/>samples = 1<br/>value = [0, 0, 0, 0, 1, 0]>, fillcolor="#8139e5"] ;
340 -> 342 ;
343 [label=<gini = 0.0<br/>samples = 3<br/>value = [0, 0, 0, 3, 0, 0]>, fillcolor="#399de5"] ;
337 -> 343 ;
344 [label=<gini = 0.0<br/>samples = 14<br/>value = [0, 0, 0, 0, 14, 0]>, fillcolor="#8139e5"] ;
336 -> 344 ;
345 [label=<52 &le; 0.988<br/>gini = 0.064<br/>samples = 30<br/>value = [0, 0, 0, 29, 1, 0]>, fillcolor="#40a0e6"] ;
269 -> 345 ;
346 [label=<gini = 0.0<br/>samples = 1<br/>value = [0, 0, 0, 0, 1, 0]>, fillcolor="#8139e5"] ;
345 -> 346 ;
347 [label=<gini = 0.0<br/>samples = 29<br/>value = [0, 0, 0, 29, 0, 0]>, fillcolor="#399de5"] ;
345 -> 347 ;
348 [label=<41 &le; -0.044<br/>gini = 0.366<br/>samples = 29<br/>value = [0, 0, 0, 7, 22, 0]>, fillcolor="#a978ed"] ;
170 -> 348 ;
349 [label=<gini = 0.0<br/>samples = 7<br/>value = [0, 0, 0, 7, 0, 0]>, fillcolor="#399de5"] ;
348 -> 349 ;
350 [label=<gini = 0.0<br/>samples = 22<br/>value = [0, 0, 0, 0, 22, 0]>, fillcolor="#8139e5"] ;
348 -> 350 ;
351 [label=<41 &le; 0.085<br/>gini = 0.011<br/>samples = 712<br/>value = [0, 0, 0, 708, 4, 0]>, fillcolor="#3a9ee5"] ;
143 -> 351 ;
352 [label=<52 &le; 0.966<br/>gini = 0.145<br/>samples = 38<br/>value = [0, 0, 0, 35, 3, 0]>, fillcolor="#4aa5e7"] ;
351 -> 352 ;
353 [label=<389 &le; -1.0<br/>gini = 0.5<br/>samples = 6<br/>value = [0, 0, 0, 3, 3, 0]>, fillcolor="#ffffff"] ;
352 -> 353 ;
354 [label=<gini = 0.0<br/>samples = 3<br/>value = [0, 0, 0, 0, 3, 0]>, fillcolor="#8139e5"] ;
353 -> 354 ;
355 [label=<gini = 0.0<br/>samples = 3<br/>value = [0, 0, 0, 3, 0, 0]>, fillcolor="#399de5"] ;
353 -> 355 ;
356 [label=<gini = 0.0<br/>samples = 32<br/>value = [0, 0, 0, 32, 0, 0]>, fillcolor="#399de5"] ;
352 -> 356 ;
357 [label=<41 &le; 0.105<br/>gini = 0.003<br/>samples = 674<br/>value = [0, 0, 0, 673, 1, 0]>, fillcolor="#399de5"] ;
351 -> 357 ;
358 [label=<41 &le; 0.105<br/>gini = 0.023<br/>samples = 87<br/>value = [0, 0, 0, 86, 1, 0]>, fillcolor="#3b9ee5"] ;
357 -> 358 ;
359 [label=<gini = 0.0<br/>samples = 86<br/>value = [0, 0, 0, 86, 0, 0]>, fillcolor="#399de5"] ;
358 -> 359 ;
360 [label=<gini = 0.0<br/>samples = 1<br/>value = [0, 0, 0, 0, 1, 0]>, fillcolor="#8139e5"] ;
358 -> 360 ;
361 [label=<gini = 0.0<br/>samples = 587<br/>value = [0, 0, 0, 587, 0, 0]>, fillcolor="#399de5"] ;
357 -> 361 ;
362 [label=<389 &le; -0.637<br/>gini = 0.664<br/>samples = 3285<br/>value = [1226, 1073, 986, 0, 0, 0]>, fillcolor="#fdf6f1"] ;
2 -> 362 ;
363 [label=<52 &le; 0.947<br/>gini = 0.588<br/>samples = 2359<br/>value = [1124, 981, 254, 0, 0, 0]>, fillcolor="#fcf2ea"] ;
362 -> 363 ;
364 [label=<41 &le; -0.31<br/>gini = 0.511<br/>samples = 1428<br/>value = [393, 910, 125, 0, 0, 0]>, fillcolor="#cef29c"] ;
363 -> 364 ;
365 [label=<52 &le; 0.934<br/>gini = 0.221<br/>samples = 520<br/>value = [60, 455, 5, 0, 0, 0]>, fillcolor="#abe955"] ;
364 -> 365 ;
366 [label=<41 &le; -0.355<br/>gini = 0.203<br/>samples = 511<br/>value = [53, 453, 5, 0, 0, 0]>, fillcolor="#a9e852"] ;
365 -> 366 ;
367 [label=<41 &le; -0.388<br/>gini = 0.318<br/>samples = 258<br/>value = [46, 208, 4, 0, 0, 0]>, fillcolor="#b4eb68"] ;
366 -> 367 ;
368 [label=<389 &le; -0.695<br/>gini = 0.017<br/>samples = 117<br/>value = [0, 116, 1, 0, 0, 0]>, fillcolor="#9ee53b"] ;
367 -> 368 ;
369 [label=<gini = 0.0<br/>samples = 106<br/>value = [0, 106, 0, 0, 0, 0]>, fillcolor="#9de539"] ;
368 -> 369 ;
370 [label=<389 &le; -0.688<br/>gini = 0.165<br/>samples = 11<br/>value = [0, 10, 1, 0, 0, 0]>, fillcolor="#a7e84d"] ;
368 -> 370 ;
371 [label=<gini = 0.0<br/>samples = 1<br/>value = [0, 0, 1, 0, 0, 0]>, fillcolor="#39e581"] ;
370 -> 371 ;
372 [label=<gini = 0.0<br/>samples = 10<br/>value = [0, 10, 0, 0, 0, 0]>, fillcolor="#9de539"] ;
370 -> 372 ;
373 [label=<389 &le; -0.807<br/>gini = 0.467<br/>samples = 141<br/>value = [46, 92, 3, 0, 0, 0]>, fillcolor="#d0f29f"] ;
367 -> 373 ;
374 [label=<52 &le; 0.872<br/>gini = 0.242<br/>samples = 64<br/>value = [9, 55, 0, 0, 0, 0]>, fillcolor="#ade959"] ;
373 -> 374 ;
375 [label=<52 &le; 0.852<br/>gini = 0.486<br/>samples = 12<br/>value = [7, 5, 0, 0, 0, 0]>, fillcolor="#f8dbc6"] ;
374 -> 375 ;
376 [label=<gini = 0.0<br/>samples = 3<br/>value = [0, 3, 0, 0, 0, 0]>, fillcolor="#9de539"] ;
375 -> 376 ;
377 [label=<52 &le; 0.866<br/>gini = 0.346<br/>samples = 9<br/>value = [7, 2, 0, 0, 0, 0]>, fillcolor="#eca572"] ;
375 -> 377 ;
378 [label=<gini = 0.0<br/>samples = 5<br/>value = [5, 0, 0, 0, 0, 0]>, fillcolor="#e58139"] ;
377 -> 378 ;
379 [label=<52 &le; 0.868<br/>gini = 0.5<br/>samples = 4<br/>value = [2, 2, 0, 0, 0, 0]>, fillcolor="#ffffff"] ;
377 -> 379 ;
380 [label=<gini = 0.0<br/>samples = 2<br/>value = [0, 2, 0, 0, 0, 0]>, fillcolor="#9de539"] ;
379 -> 380 ;
381 [label=<gini = 0.0<br/>samples = 2<br/>value = [2, 0, 0, 0, 0, 0]>, fillcolor="#e58139"] ;
379 -> 381 ;
382 [label=<389 &le; -0.837<br/>gini = 0.074<br/>samples = 52<br/>value = [2, 50, 0, 0, 0, 0]>, fillcolor="#a1e641"] ;
374 -> 382 ;
383 [label=<gini = 0.0<br/>samples = 37<br/>value = [0, 37, 0, 0, 0, 0]>, fillcolor="#9de539"] ;
382 -> 383 ;
384 [label=<389 &le; -0.834<br/>gini = 0.231<br/>samples = 15<br/>value = [2, 13, 0, 0, 0, 0]>, fillcolor="#ace957"] ;
382 -> 384 ;
385 [label=<gini = 0.0<br/>samples = 1<br/>value = [1, 0, 0, 0, 0, 0]>, fillcolor="#e58139"] ;
384 -> 385 ;
386 [label=<41 &le; -0.37<br/>gini = 0.133<br/>samples = 14<br/>value = [1, 13, 0, 0, 0, 0]>, fillcolor="#a5e748"] ;
384 -> 386 ;
387 [label=<52 &le; 0.893<br/>gini = 0.444<br/>samples = 3<br/>value = [1, 2, 0, 0, 0, 0]>, fillcolor="#cef29c"] ;
386 -> 387 ;
388 [label=<gini = 0.0<br/>samples = 1<br/>value = [1, 0, 0, 0, 0, 0]>, fillcolor="#e58139"] ;
387 -> 388 ;
389 [label=<gini = 0.0<br/>samples = 2<br/>value = [0, 2, 0, 0, 0, 0]>, fillcolor="#9de539"] ;
387 -> 389 ;
390 [label=<gini = 0.0<br/>samples = 11<br/>value = [0, 11, 0, 0, 0, 0]>, fillcolor="#9de539"] ;
386 -> 390 ;
391 [label=<52 &le; 0.862<br/>gini = 0.537<br/>samples = 77<br/>value = [37, 37, 3, 0, 0, 0]>, fillcolor="#ffffff"] ;
373 -> 391 ;
392 [label=<389 &le; -0.66<br/>gini = 0.29<br/>samples = 18<br/>value = [2, 15, 1, 0, 0, 0]>, fillcolor="#afea5e"] ;
391 -> 392 ;
393 [label=<41 &le; -0.358<br/>gini = 0.208<br/>samples = 17<br/>value = [2, 15, 0, 0, 0, 0]>, fillcolor="#aae853"] ;
392 -> 393 ;
394 [label=<389 &le; -0.805<br/>gini = 0.117<br/>samples = 16<br/>value = [1, 15, 0, 0, 0, 0]>, fillcolor="#a4e746"] ;
393 -> 394 ;
395 [label=<gini = 0.0<br/>samples = 1<br/>value = [1, 0, 0, 0, 0, 0]>, fillcolor="#e58139"] ;
394 -> 395 ;
396 [label=<gini = 0.0<br/>samples = 15<br/>value = [0, 15, 0, 0, 0, 0]>, fillcolor="#9de539"] ;
394 -> 396 ;
397 [label=<gini = 0.0<br/>samples = 1<br/>value = [1, 0, 0, 0, 0, 0]>, fillcolor="#e58139"] ;
393 -> 397 ;
398 [label=<gini = 0.0<br/>samples = 1<br/>value = [0, 0, 1, 0, 0, 0]>, fillcolor="#39e581"] ;
392 -> 398 ;
399 [label=<52 &le; 0.899<br/>gini = 0.508<br/>samples = 59<br/>value = [35, 22, 2, 0, 0, 0]>, fillcolor="#f6d3b9"] ;
391 -> 399 ;
400 [label=<41 &le; -0.382<br/>gini = 0.452<br/>samples = 51<br/>value = [35, 14, 2, 0, 0, 0]>, fillcolor="#f0b78f"] ;
399 -> 400 ;
401 [label=<52 &le; 0.871<br/>gini = 0.469<br/>samples = 8<br/>value = [3, 5, 0, 0, 0, 0]>, fillcolor="#d8f5b0"] ;
400 -> 401 ;
402 [label=<gini = 0.0<br/>samples = 3<br/>value = [3, 0, 0, 0, 0, 0]>, fillcolor="#e58139"] ;
401 -> 402 ;
403 [label=<gini = 0.0<br/>samples = 5<br/>value = [0, 5, 0, 0, 0, 0]>, fillcolor="#9de539"] ;
401 -> 403 ;
404 [label=<389 &le; -0.805<br/>gini = 0.4<br/>samples = 43<br/>value = [32, 9, 2, 0, 0, 0]>, fillcolor="#edaa79"] ;
400 -> 404 ;
405 [label=<gini = 0.0<br/>samples = 1<br/>value = [0, 1, 0, 0, 0, 0]>, fillcolor="#9de539"] ;
404 -> 405 ;
406 [label=<389 &le; -0.706<br/>gini = 0.381<br/>samples = 42<br/>value = [32, 8, 2, 0, 0, 0]>, fillcolor="#eda673"] ;
404 -> 406 ;
407 [label=<52 &le; 0.892<br/>gini = 0.165<br/>samples = 22<br/>value = [20, 2, 0, 0, 0, 0]>, fillcolor="#e88e4d"] ;
406 -> 407 ;
408 [label=<52 &le; 0.889<br/>gini = 0.091<br/>samples = 21<br/>value = [20, 1, 0, 0, 0, 0]>, fillcolor="#e68743"] ;
407 -> 408 ;
409 [label=<gini = 0.0<br/>samples = 18<br/>value = [18, 0, 0, 0, 0, 0]>, fillcolor="#e58139"] ;
408 -> 409 ;
410 [label=<389 &le; -0.781<br/>gini = 0.444<br/>samples = 3<br/>value = [2, 1, 0, 0, 0, 0]>, fillcolor="#f2c09c"] ;
408 -> 410 ;
411 [label=<gini = 0.0<br/>samples = 1<br/>value = [0, 1, 0, 0, 0, 0]>, fillcolor="#9de539"] ;
410 -> 411 ;
412 [label=<gini = 0.0<br/>samples = 2<br/>value = [2, 0, 0, 0, 0, 0]>, fillcolor="#e58139"] ;
410 -> 412 ;
413 [label=<gini = 0.0<br/>samples = 1<br/>value = [0, 1, 0, 0, 0, 0]>, fillcolor="#9de539"] ;
407 -> 413 ;
414 [label=<52 &le; 0.871<br/>gini = 0.54<br/>samples = 20<br/>value = [12, 6, 2, 0, 0, 0]>, fillcolor="#f4c9aa"] ;
406 -> 414 ;
415 [label=<52 &le; 0.865<br/>gini = 0.32<br/>samples = 5<br/>value = [1, 4, 0, 0, 0, 0]>, fillcolor="#b6ec6a"] ;
414 -> 415 ;
416 [label=<gini = 0.0<br/>samples = 1<br/>value = [1, 0, 0, 0, 0, 0]>, fillcolor="#e58139"] ;
415 -> 416 ;
417 [label=<gini = 0.0<br/>samples = 4<br/>value = [0, 4, 0, 0, 0, 0]>, fillcolor="#9de539"] ;
415 -> 417 ;
418 [label=<389 &le; -0.694<br/>gini = 0.427<br/>samples = 15<br/>value = [11, 2, 2, 0, 0, 0]>, fillcolor="#eda876"] ;
414 -> 418 ;
419 [label=<gini = 0.0<br/>samples = 1<br/>value = [0, 1, 0, 0, 0, 0]>, fillcolor="#9de539"] ;
418 -> 419 ;
420 [label=<41 &le; -0.361<br/>gini = 0.357<br/>samples = 14<br/>value = [11, 1, 2, 0, 0, 0]>, fillcolor="#eca06b"] ;
418 -> 420 ;
421 [label=<389 &le; -0.669<br/>gini = 0.18<br/>samples = 10<br/>value = [9, 1, 0, 0, 0, 0]>, fillcolor="#e88f4f"] ;
420 -> 421 ;
422 [label=<389 &le; -0.672<br/>gini = 0.444<br/>samples = 3<br/>value = [2, 1, 0, 0, 0, 0]>, fillcolor="#f2c09c"] ;
421 -> 422 ;
423 [label=<gini = 0.0<br/>samples = 2<br/>value = [2, 0, 0, 0, 0, 0]>, fillcolor="#e58139"] ;
422 -> 423 ;
424 [label=<gini = 0.0<br/>samples = 1<br/>value = [0, 1, 0, 0, 0, 0]>, fillcolor="#9de539"] ;
422 -> 424 ;
425 [label=<gini = 0.0<br/>samples = 7<br/>value = [7, 0, 0, 0, 0, 0]>, fillcolor="#e58139"] ;
421 -> 425 ;
426 [label=<52 &le; 0.873<br/>gini = 0.5<br/>samples = 4<br/>value = [2, 0, 2, 0, 0, 0]>, fillcolor="#ffffff"] ;
420 -> 426 ;
427 [label=<gini = 0.0<br/>samples = 2<br/>value = [0, 0, 2, 0, 0, 0]>, fillcolor="#39e581"] ;
426 -> 427 ;
428 [label=<gini = 0.0<br/>samples = 2<br/>value = [2, 0, 0, 0, 0, 0]>, fillcolor="#e58139"] ;
426 -> 428 ;
429 [label=<gini = 0.0<br/>samples = 8<br/>value = [0, 8, 0, 0, 0, 0]>, fillcolor="#9de539"] ;
399 -> 429 ;
430 [label=<52 &le; 0.93<br/>gini = 0.061<br/>samples = 253<br/>value = [7, 245, 1, 0, 0, 0]>, fillcolor="#a0e63f"] ;
366 -> 430 ;
431 [label=<389 &le; -0.641<br/>gini = 0.048<br/>samples = 244<br/>value = [5, 238, 1, 0, 0, 0]>, fillcolor="#9fe63e"] ;
430 -> 431 ;
432 [label=<52 &le; 0.904<br/>gini = 0.041<br/>samples = 241<br/>value = [4, 236, 1, 0, 0, 0]>, fillcolor="#9fe63d"] ;
431 -> 432 ;
433 [label=<gini = 0.0<br/>samples = 161<br/>value = [0, 161, 0, 0, 0, 0]>, fillcolor="#9de539"] ;
432 -> 433 ;
434 [label=<52 &le; 0.905<br/>gini = 0.118<br/>samples = 80<br/>value = [4, 75, 1, 0, 0, 0]>, fillcolor="#a3e746"] ;
432 -> 434 ;
435 [label=<gini = 0.0<br/>samples = 2<br/>value = [2, 0, 0, 0, 0, 0]>, fillcolor="#e58139"] ;
434 -> 435 ;
436 [label=<52 &le; 0.924<br/>gini = 0.075<br/>samples = 78<br/>value = [2, 75, 1, 0, 0, 0]>, fillcolor="#a1e641"] ;
434 -> 436 ;
437 [label=<52 &le; 0.91<br/>gini = 0.033<br/>samples = 60<br/>value = [1, 59, 0, 0, 0, 0]>, fillcolor="#9fe53c"] ;
436 -> 437 ;
438 [label=<52 &le; 0.91<br/>gini = 0.117<br/>samples = 16<br/>value = [1, 15, 0, 0, 0, 0]>, fillcolor="#a4e746"] ;
437 -> 438 ;
439 [label=<gini = 0.0<br/>samples = 15<br/>value = [0, 15, 0, 0, 0, 0]>, fillcolor="#9de539"] ;
438 -> 439 ;
440 [label=<gini = 0.0<br/>samples = 1<br/>value = [1, 0, 0, 0, 0, 0]>, fillcolor="#e58139"] ;
438 -> 440 ;
441 [label=<gini = 0.0<br/>samples = 44<br/>value = [0, 44, 0, 0, 0, 0]>, fillcolor="#9de539"] ;
437 -> 441 ;
442 [label=<52 &le; 0.924<br/>gini = 0.204<br/>samples = 18<br/>value = [1, 16, 1, 0, 0, 0]>, fillcolor="#a9e850"] ;
436 -> 442 ;
443 [label=<gini = 0.0<br/>samples = 1<br/>value = [0, 0, 1, 0, 0, 0]>, fillcolor="#39e581"] ;
442 -> 443 ;
444 [label=<52 &le; 0.926<br/>gini = 0.111<br/>samples = 17<br/>value = [1, 16, 0, 0, 0, 0]>, fillcolor="#a3e745"] ;
442 -> 444 ;
445 [label=<389 &le; -0.721<br/>gini = 0.5<br/>samples = 2<br/>value = [1, 1, 0, 0, 0, 0]>, fillcolor="#ffffff"] ;
444 -> 445 ;
446 [label=<gini = 0.0<br/>samples = 1<br/>value = [1, 0, 0, 0, 0, 0]>, fillcolor="#e58139"] ;
445 -> 446 ;
447 [label=<gini = 0.0<br/>samples = 1<br/>value = [0, 1, 0, 0, 0, 0]>, fillcolor="#9de539"] ;
445 -> 447 ;
448 [label=<gini = 0.0<br/>samples = 15<br/>value = [0, 15, 0, 0, 0, 0]>, fillcolor="#9de539"] ;
444 -> 448 ;
449 [label=<41 &le; -0.34<br/>gini = 0.444<br/>samples = 3<br/>value = [1, 2, 0, 0, 0, 0]>, fillcolor="#cef29c"] ;
431 -> 449 ;
450 [label=<gini = 0.0<br/>samples = 1<br/>value = [1, 0, 0, 0, 0, 0]>, fillcolor="#e58139"] ;
449 -> 450 ;
451 [label=<gini = 0.0<br/>samples = 2<br/>value = [0, 2, 0, 0, 0, 0]>, fillcolor="#9de539"] ;
449 -> 451 ;
452 [label=<41 &le; -0.317<br/>gini = 0.346<br/>samples = 9<br/>value = [2, 7, 0, 0, 0, 0]>, fillcolor="#b9ec72"] ;
430 -> 452 ;
453 [label=<gini = 0.0<br/>samples = 7<br/>value = [0, 7, 0, 0, 0, 0]>, fillcolor="#9de539"] ;
452 -> 453 ;
454 [label=<gini = 0.0<br/>samples = 2<br/>value = [2, 0, 0, 0, 0, 0]>, fillcolor="#e58139"] ;
452 -> 454 ;
455 [label=<389 &le; -0.731<br/>gini = 0.346<br/>samples = 9<br/>value = [7, 2, 0, 0, 0, 0]>, fillcolor="#eca572"] ;
365 -> 455 ;
456 [label=<gini = 0.0<br/>samples = 7<br/>value = [7, 0, 0, 0, 0, 0]>, fillcolor="#e58139"] ;
455 -> 456 ;
457 [label=<gini = 0.0<br/>samples = 2<br/>value = [0, 2, 0, 0, 0, 0]>, fillcolor="#9de539"] ;
455 -> 457 ;
458 [label=<52 &le; 0.876<br/>gini = 0.597<br/>samples = 908<br/>value = [333, 455, 120, 0, 0, 0]>, fillcolor="#eaf9d5"] ;
364 -> 458 ;
459 [label=<41 &le; -0.253<br/>gini = 0.371<br/>samples = 273<br/>value = [60, 208, 5, 0, 0, 0]>, fillcolor="#bbed75"] ;
458 -> 459 ;
460 [label=<41 &le; -0.291<br/>gini = 0.509<br/>samples = 132<br/>value = [54, 75, 3, 0, 0, 0]>, fillcolor="#e5f8ca"] ;
459 -> 460 ;
461 [label=<gini = 0.0<br/>samples = 37<br/>value = [0, 37, 0, 0, 0, 0]>, fillcolor="#9de539"] ;
460 -> 461 ;
462 [label=<52 &le; 0.777<br/>gini = 0.516<br/>samples = 95<br/>value = [54, 38, 3, 0, 0, 0]>, fillcolor="#f8dcc7"] ;
460 -> 462 ;
463 [label=<gini = 0.0<br/>samples = 7<br/>value = [0, 7, 0, 0, 0, 0]>, fillcolor="#9de539"] ;
462 -> 463 ;
464 [label=<52 &le; 0.796<br/>gini = 0.498<br/>samples = 88<br/>value = [54, 31, 3, 0, 0, 0]>, fillcolor="#f5ccaf"] ;
462 -> 464 ;
465 [label=<41 &le; -0.26<br/>gini = 0.074<br/>samples = 26<br/>value = [25, 1, 0, 0, 0, 0]>, fillcolor="#e68641"] ;
464 -> 465 ;
466 [label=<gini = 0.0<br/>samples = 25<br/>value = [25, 0, 0, 0, 0, 0]>, fillcolor="#e58139"] ;
465 -> 466 ;
467 [label=<gini = 0.0<br/>samples = 1<br/>value = [0, 1, 0, 0, 0, 0]>, fillcolor="#9de539"] ;
465 -> 467 ;
468 [label=<52 &le; 0.834<br/>gini = 0.545<br/>samples = 62<br/>value = [29, 30, 3, 0, 0, 0]>, fillcolor="#fcfef9"] ;
464 -> 468 ;
469 [label=<52 &le; 0.802<br/>gini = 0.304<br/>samples = 28<br/>value = [4, 23, 1, 0, 0, 0]>, fillcolor="#b1ea62"] ;
468 -> 469 ;
470 [label=<41 &le; -0.271<br/>gini = 0.494<br/>samples = 9<br/>value = [4, 5, 0, 0, 0, 0]>, fillcolor="#ebfad7"] ;
469 -> 470 ;
471 [label=<gini = 0.0<br/>samples = 4<br/>value = [4, 0, 0, 0, 0, 0]>, fillcolor="#e58139"] ;
470 -> 471 ;
472 [label=<gini = 0.0<br/>samples = 5<br/>value = [0, 5, 0, 0, 0, 0]>, fillcolor="#9de539"] ;
470 -> 472 ;
473 [label=<52 &le; 0.832<br/>gini = 0.1<br/>samples = 19<br/>value = [0, 18, 1, 0, 0, 0]>, fillcolor="#a2e644"] ;
469 -> 473 ;
474 [label=<gini = 0.0<br/>samples = 17<br/>value = [0, 17, 0, 0, 0, 0]>, fillcolor="#9de539"] ;
473 -> 474 ;
475 [label=<52 &le; 0.832<br/>gini = 0.5<br/>samples = 2<br/>value = [0, 1, 1, 0, 0, 0]>, fillcolor="#ffffff"] ;
473 -> 475 ;
476 [label=<gini = 0.0<br/>samples = 1<br/>value = [0, 0, 1, 0, 0, 0]>, fillcolor="#39e581"] ;
475 -> 476 ;
477 [label=<gini = 0.0<br/>samples = 1<br/>value = [0, 1, 0, 0, 0, 0]>, fillcolor="#9de539"] ;
475 -> 477 ;
478 [label=<41 &le; -0.279<br/>gini = 0.413<br/>samples = 34<br/>value = [25, 7, 2, 0, 0, 0]>, fillcolor="#eeab7b"] ;
468 -> 478 ;
479 [label=<gini = 0.0<br/>samples = 4<br/>value = [0, 4, 0, 0, 0, 0]>, fillcolor="#9de539"] ;
478 -> 479 ;
480 [label=<389 &le; -0.73<br/>gini = 0.291<br/>samples = 30<br/>value = [25, 3, 2, 0, 0, 0]>, fillcolor="#ea985e"] ;
478 -> 480 ;
481 [label=<52 &le; 0.853<br/>gini = 0.191<br/>samples = 28<br/>value = [25, 3, 0, 0, 0, 0]>, fillcolor="#e89051"] ;
480 -> 481 ;
482 [label=<41 &le; -0.258<br/>gini = 0.074<br/>samples = 26<br/>value = [25, 1, 0, 0, 0, 0]>, fillcolor="#e68641"] ;
481 -> 482 ;
483 [label=<gini = 0.0<br/>samples = 20<br/>value = [20, 0, 0, 0, 0, 0]>, fillcolor="#e58139"] ;
482 -> 483 ;
484 [label=<41 &le; -0.257<br/>gini = 0.278<br/>samples = 6<br/>value = [5, 1, 0, 0, 0, 0]>, fillcolor="#ea9a61"] ;
482 -> 484 ;
485 [label=<gini = 0.0<br/>samples = 1<br/>value = [0, 1, 0, 0, 0, 0]>, fillcolor="#9de539"] ;
484 -> 485 ;
486 [label=<gini = 0.0<br/>samples = 5<br/>value = [5, 0, 0, 0, 0, 0]>, fillcolor="#e58139"] ;
484 -> 486 ;
487 [label=<gini = 0.0<br/>samples = 2<br/>value = [0, 2, 0, 0, 0, 0]>, fillcolor="#9de539"] ;
481 -> 487 ;
488 [label=<gini = 0.0<br/>samples = 2<br/>value = [0, 0, 2, 0, 0, 0]>, fillcolor="#39e581"] ;
480 -> 488 ;
489 [label=<389 &le; -0.92<br/>gini = 0.108<br/>samples = 141<br/>value = [6, 133, 2, 0, 0, 0]>, fillcolor="#a3e745"] ;
459 -> 489 ;
490 [label=<gini = 0.0<br/>samples = 2<br/>value = [2, 0, 0, 0, 0, 0]>, fillcolor="#e58139"] ;
489 -> 490 ;
491 [label=<389 &le; -0.652<br/>gini = 0.083<br/>samples = 139<br/>value = [4, 133, 2, 0, 0, 0]>, fillcolor="#a1e642"] ;
489 -> 491 ;
492 [label=<41 &le; -0.232<br/>gini = 0.071<br/>samples = 137<br/>value = [4, 132, 1, 0, 0, 0]>, fillcolor="#a1e640"] ;
491 -> 492 ;
493 [label=<52 &le; 0.846<br/>gini = 0.225<br/>samples = 31<br/>value = [4, 27, 0, 0, 0, 0]>, fillcolor="#ace956"] ;
492 -> 493 ;
494 [label=<52 &le; 0.836<br/>gini = 0.071<br/>samples = 27<br/>value = [1, 26, 0, 0, 0, 0]>, fillcolor="#a1e641"] ;
493 -> 494 ;
495 [label=<gini = 0.0<br/>samples = 23<br/>value = [0, 23, 0, 0, 0, 0]>, fillcolor="#9de539"] ;
494 -> 495 ;
496 [label=<52 &le; 0.837<br/>gini = 0.375<br/>samples = 4<br/>value = [1, 3, 0, 0, 0, 0]>, fillcolor="#beee7b"] ;
494 -> 496 ;
497 [label=<gini = 0.0<br/>samples = 1<br/>value = [1, 0, 0, 0, 0, 0]>, fillcolor="#e58139"] ;
496 -> 497 ;
498 [label=<gini = 0.0<br/>samples = 3<br/>value = [0, 3, 0, 0, 0, 0]>, fillcolor="#9de539"] ;
496 -> 498 ;
499 [label=<389 &le; -0.815<br/>gini = 0.375<br/>samples = 4<br/>value = [3, 1, 0, 0, 0, 0]>, fillcolor="#eeab7b"] ;
493 -> 499 ;
500 [label=<gini = 0.0<br/>samples = 3<br/>value = [3, 0, 0, 0, 0, 0]>, fillcolor="#e58139"] ;
499 -> 500 ;
501 [label=<gini = 0.0<br/>samples = 1<br/>value = [0, 1, 0, 0, 0, 0]>, fillcolor="#9de539"] ;
499 -> 501 ;
502 [label=<389 &le; -0.747<br/>gini = 0.019<br/>samples = 106<br/>value = [0, 105, 1, 0, 0, 0]>, fillcolor="#9ee53b"] ;
492 -> 502 ;
503 [label=<gini = 0.0<br/>samples = 91<br/>value = [0, 91, 0, 0, 0, 0]>, fillcolor="#9de539"] ;
502 -> 503 ;
504 [label=<389 &le; -0.742<br/>gini = 0.124<br/>samples = 15<br/>value = [0, 14, 1, 0, 0, 0]>, fillcolor="#a4e747"] ;
502 -> 504 ;
505 [label=<gini = 0.0<br/>samples = 1<br/>value = [0, 0, 1, 0, 0, 0]>, fillcolor="#39e581"] ;
504 -> 505 ;
506 [label=<gini = 0.0<br/>samples = 14<br/>value = [0, 14, 0, 0, 0, 0]>, fillcolor="#9de539"] ;
504 -> 506 ;
507 [label=<41 &le; -0.194<br/>gini = 0.5<br/>samples = 2<br/>value = [0, 1, 1, 0, 0, 0]>, fillcolor="#ffffff"] ;
491 -> 507 ;
508 [label=<gini = 0.0<br/>samples = 1<br/>value = [0, 1, 0, 0, 0, 0]>, fillcolor="#9de539"] ;
507 -> 508 ;
509 [label=<gini = 0.0<br/>samples = 1<br/>value = [0, 0, 1, 0, 0, 0]>, fillcolor="#39e581"] ;
507 -> 509 ;
510 [label=<41 &le; -0.17<br/>gini = 0.631<br/>samples = 635<br/>value = [273, 247, 115, 0, 0, 0]>, fillcolor="#fdf7f2"] ;
458 -> 510 ;
511 [label=<389 &le; -0.911<br/>gini = 0.599<br/>samples = 479<br/>value = [178, 237, 64, 0, 0, 0]>, fillcolor="#ecfad8"] ;
510 -> 511 ;
512 [label=<gini = 0.0<br/>samples = 77<br/>value = [0, 77, 0, 0, 0, 0]>, fillcolor="#9de539"] ;
511 -> 512 ;
513 [label=<389 &le; -0.724<br/>gini = 0.62<br/>samples = 402<br/>value = [178, 160, 64, 0, 0, 0]>, fillcolor="#fdf6f0"] ;
511 -> 513 ;
514 [label=<41 &le; -0.29<br/>gini = 0.532<br/>samples = 275<br/>value = [156, 104, 15, 0, 0, 0]>, fillcolor="#f7d9c3"] ;
513 -> 514 ;
515 [label=<52 &le; 0.914<br/>gini = 0.262<br/>samples = 58<br/>value = [49, 9, 0, 0, 0, 0]>, fillcolor="#ea985d"] ;
514 -> 515 ;
516 [label=<gini = 0.0<br/>samples = 7<br/>value = [0, 7, 0, 0, 0, 0]>, fillcolor="#9de539"] ;
515 -> 516 ;
517 [label=<52 &le; 0.933<br/>gini = 0.075<br/>samples = 51<br/>value = [49, 2, 0, 0, 0, 0]>, fillcolor="#e68641"] ;
515 -> 517 ;
518 [label=<52 &le; 0.932<br/>gini = 0.172<br/>samples = 21<br/>value = [19, 2, 0, 0, 0, 0]>, fillcolor="#e88e4e"] ;
517 -> 518 ;
519 [label=<41 &le; -0.295<br/>gini = 0.095<br/>samples = 20<br/>value = [19, 1, 0, 0, 0, 0]>, fillcolor="#e68843"] ;
518 -> 519 ;
520 [label=<gini = 0.0<br/>samples = 15<br/>value = [15, 0, 0, 0, 0, 0]>, fillcolor="#e58139"] ;
519 -> 520 ;
521 [label=<41 &le; -0.293<br/>gini = 0.32<br/>samples = 5<br/>value = [4, 1, 0, 0, 0, 0]>, fillcolor="#eca06a"] ;
519 -> 521 ;
522 [label=<gini = 0.0<br/>samples = 1<br/>value = [0, 1, 0, 0, 0, 0]>, fillcolor="#9de539"] ;
521 -> 522 ;
523 [label=<gini = 0.0<br/>samples = 4<br/>value = [4, 0, 0, 0, 0, 0]>, fillcolor="#e58139"] ;
521 -> 523 ;
524 [label=<gini = 0.0<br/>samples = 1<br/>value = [0, 1, 0, 0, 0, 0]>, fillcolor="#9de539"] ;
518 -> 524 ;
525 [label=<gini = 0.0<br/>samples = 30<br/>value = [30, 0, 0, 0, 0, 0]>, fillcolor="#e58139"] ;
517 -> 525 ;
526 [label=<41 &le; -0.224<br/>gini = 0.56<br/>samples = 217<br/>value = [107, 95, 15, 0, 0, 0]>, fillcolor="#fcf3ec"] ;
514 -> 526 ;
527 [label=<41 &le; -0.251<br/>gini = 0.533<br/>samples = 117<br/>value = [43, 67, 7, 0, 0, 0]>, fillcolor="#dff7bf"] ;
526 -> 527 ;
528 [label=<52 &le; 0.927<br/>gini = 0.487<br/>samples = 57<br/>value = [35, 21, 1, 0, 0, 0]>, fillcolor="#f5ceb2"] ;
527 -> 528 ;
529 [label=<52 &le; 0.926<br/>gini = 0.198<br/>samples = 9<br/>value = [1, 8, 0, 0, 0, 0]>, fillcolor="#a9e852"] ;
528 -> 529 ;
530 [label=<gini = 0.0<br/>samples = 6<br/>value = [0, 6, 0, 0, 0, 0]>, fillcolor="#9de539"] ;
529 -> 530 ;
531 [label=<52 &le; 0.927<br/>gini = 0.444<br/>samples = 3<br/>value = [1, 2, 0, 0, 0, 0]>, fillcolor="#cef29c"] ;
529 -> 531 ;
532 [label=<gini = 0.0<br/>samples = 1<br/>value = [1, 0, 0, 0, 0, 0]>, fillcolor="#e58139"] ;
531 -> 532 ;
533 [label=<gini = 0.0<br/>samples = 2<br/>value = [0, 2, 0, 0, 0, 0]>, fillcolor="#9de539"] ;
531 -> 533 ;
534 [label=<389 &le; -0.765<br/>gini = 0.424<br/>samples = 48<br/>value = [34, 13, 1, 0, 0, 0]>, fillcolor="#efb388"] ;
528 -> 534 ;
535 [label=<52 &le; 0.933<br/>gini = 0.291<br/>samples = 34<br/>value = [28, 6, 0, 0, 0, 0]>, fillcolor="#eb9c63"] ;
534 -> 535 ;
536 [label=<52 &le; 0.932<br/>gini = 0.5<br/>samples = 6<br/>value = [3, 3, 0, 0, 0, 0]>, fillcolor="#ffffff"] ;
535 -> 536 ;
537 [label=<52 &le; 0.929<br/>gini = 0.375<br/>samples = 4<br/>value = [3, 1, 0, 0, 0, 0]>, fillcolor="#eeab7b"] ;
536 -> 537 ;
538 [label=<gini = 0.0<br/>samples = 1<br/>value = [0, 1, 0, 0, 0, 0]>, fillcolor="#9de539"] ;
537 -> 538 ;
539 [label=<gini = 0.0<br/>samples = 3<br/>value = [3, 0, 0, 0, 0, 0]>, fillcolor="#e58139"] ;
537 -> 539 ;
540 [label=<gini = 0.0<br/>samples = 2<br/>value = [0, 2, 0, 0, 0, 0]>, fillcolor="#9de539"] ;
536 -> 540 ;
541 [label=<41 &le; -0.289<br/>gini = 0.191<br/>samples = 28<br/>value = [25, 3, 0, 0, 0, 0]>, fillcolor="#e89051"] ;
535 -> 541 ;
542 [label=<gini = 0.0<br/>samples = 1<br/>value = [0, 1, 0, 0, 0, 0]>, fillcolor="#9de539"] ;
541 -> 542 ;
543 [label=<389 &le; -0.806<br/>gini = 0.137<br/>samples = 27<br/>value = [25, 2, 0, 0, 0, 0]>, fillcolor="#e78b49"] ;
541 -> 543 ;
544 [label=<gini = 0.0<br/>samples = 14<br/>value = [14, 0, 0, 0, 0, 0]>, fillcolor="#e58139"] ;
543 -> 544 ;
545 [label=<389 &le; -0.799<br/>gini = 0.26<br/>samples = 13<br/>value = [11, 2, 0, 0, 0, 0]>, fillcolor="#ea985d"] ;
543 -> 545 ;
546 [label=<gini = 0.0<br/>samples = 1<br/>value = [0, 1, 0, 0, 0, 0]>, fillcolor="#9de539"] ;
545 -> 546 ;
547 [label=<52 &le; 0.946<br/>gini = 0.153<br/>samples = 12<br/>value = [11, 1, 0, 0, 0, 0]>, fillcolor="#e78c4b"] ;
545 -> 547 ;
548 [label=<gini = 0.0<br/>samples = 10<br/>value = [10, 0, 0, 0, 0, 0]>, fillcolor="#e58139"] ;
547 -> 548 ;
549 [label=<389 &le; -0.776<br/>gini = 0.5<br/>samples = 2<br/>value = [1, 1, 0, 0, 0, 0]>, fillcolor="#ffffff"] ;
547 -> 549 ;
550 [label=<gini = 0.0<br/>samples = 1<br/>value = [1, 0, 0, 0, 0, 0]>, fillcolor="#e58139"] ;
549 -> 550 ;
551 [label=<gini = 0.0<br/>samples = 1<br/>value = [0, 1, 0, 0, 0, 0]>, fillcolor="#9de539"] ;
549 -> 551 ;
552 [label=<52 &le; 0.934<br/>gini = 0.561<br/>samples = 14<br/>value = [6, 7, 1, 0, 0, 0]>, fillcolor="#f3fce6"] ;
534 -> 552 ;
553 [label=<gini = 0.0<br/>samples = 4<br/>value = [4, 0, 0, 0, 0, 0]>, fillcolor="#e58139"] ;
552 -> 553 ;
554 [label=<41 &le; -0.261<br/>gini = 0.46<br/>samples = 10<br/>value = [2, 7, 1, 0, 0, 0]>, fillcolor="#c2ef83"] ;
552 -> 554 ;
555 [label=<gini = 0.0<br/>samples = 6<br/>value = [0, 6, 0, 0, 0, 0]>, fillcolor="#9de539"] ;
554 -> 555 ;
556 [label=<41 &le; -0.26<br/>gini = 0.625<br/>samples = 4<br/>value = [2, 1, 1, 0, 0, 0]>, fillcolor="#f6d5bd"] ;
554 -> 556 ;
557 [label=<gini = 0.0<br/>samples = 2<br/>value = [2, 0, 0, 0, 0, 0]>, fillcolor="#e58139"] ;
556 -> 557 ;
558 [label=<52 &le; 0.94<br/>gini = 0.5<br/>samples = 2<br/>value = [0, 1, 1, 0, 0, 0]>, fillcolor="#ffffff"] ;
556 -> 558 ;
559 [label=<gini = 0.0<br/>samples = 1<br/>value = [0, 0, 1, 0, 0, 0]>, fillcolor="#39e581"] ;
558 -> 559 ;
560 [label=<gini = 0.0<br/>samples = 1<br/>value = [0, 1, 0, 0, 0, 0]>, fillcolor="#9de539"] ;
558 -> 560 ;
561 [label=<389 &le; -0.779<br/>gini = 0.384<br/>samples = 60<br/>value = [8, 46, 6, 0, 0, 0]>, fillcolor="#b7ec6e"] ;
527 -> 561 ;
562 [label=<52 &le; 0.911<br/>gini = 0.219<br/>samples = 41<br/>value = [4, 36, 1, 0, 0, 0]>, fillcolor="#aae954"] ;
561 -> 562 ;
563 [label=<gini = 0.0<br/>samples = 1<br/>value = [1, 0, 0, 0, 0, 0]>, fillcolor="#e58139"] ;
562 -> 563 ;
564 [label=<389 &le; -0.863<br/>gini = 0.184<br/>samples = 40<br/>value = [3, 36, 1, 0, 0, 0]>, fillcolor="#a8e84e"] ;
562 -> 564 ;
565 [label=<41 &le; -0.236<br/>gini = 0.444<br/>samples = 6<br/>value = [2, 4, 0, 0, 0, 0]>, fillcolor="#cef29c"] ;
564 -> 565 ;
566 [label=<gini = 0.0<br/>samples = 4<br/>value = [0, 4, 0, 0, 0, 0]>, fillcolor="#9de539"] ;
565 -> 566 ;
567 [label=<gini = 0.0<br/>samples = 2<br/>value = [2, 0, 0, 0, 0, 0]>, fillcolor="#e58139"] ;
565 -> 567 ;
568 [label=<41 &le; -0.247<br/>gini = 0.112<br/>samples = 34<br/>value = [1, 32, 1, 0, 0, 0]>, fillcolor="#a3e745"] ;
564 -> 568 ;
569 [label=<41 &le; -0.247<br/>gini = 0.449<br/>samples = 7<br/>value = [1, 5, 1, 0, 0, 0]>, fillcolor="#beee7b"] ;
568 -> 569 ;
570 [label=<389 &le; -0.811<br/>gini = 0.278<br/>samples = 6<br/>value = [0, 5, 1, 0, 0, 0]>, fillcolor="#b1ea61"] ;
569 -> 570 ;
571 [label=<gini = 0.0<br/>samples = 5<br/>value = [0, 5, 0, 0, 0, 0]>, fillcolor="#9de539"] ;
570 -> 571 ;
572 [label=<gini = 0.0<br/>samples = 1<br/>value = [0, 0, 1, 0, 0, 0]>, fillcolor="#39e581"] ;
570 -> 572 ;
573 [label=<gini = 0.0<br/>samples = 1<br/>value = [1, 0, 0, 0, 0, 0]>, fillcolor="#e58139"] ;
569 -> 573 ;
574 [label=<gini = 0.0<br/>samples = 27<br/>value = [0, 27, 0, 0, 0, 0]>, fillcolor="#9de539"] ;
568 -> 574 ;
575 [label=<52 &le; 0.945<br/>gini = 0.609<br/>samples = 19<br/>value = [4, 10, 5, 0, 0, 0]>, fillcolor="#dcf6b8"] ;
561 -> 575 ;
576 [label=<41 &le; -0.246<br/>gini = 0.508<br/>samples = 16<br/>value = [1, 10, 5, 0, 0, 0]>, fillcolor="#d2f3a5"] ;
575 -> 576 ;
577 [label=<gini = 0.0<br/>samples = 1<br/>value = [1, 0, 0, 0, 0, 0]>, fillcolor="#e58139"] ;
576 -> 577 ;
578 [label=<52 &le; 0.945<br/>gini = 0.444<br/>samples = 15<br/>value = [0, 10, 5, 0, 0, 0]>, fillcolor="#cef29c"] ;
576 -> 578 ;
579 [label=<52 &le; 0.932<br/>gini = 0.408<br/>samples = 14<br/>value = [0, 10, 4, 0, 0, 0]>, fillcolor="#c4ef88"] ;
578 -> 579 ;
580 [label=<52 &le; 0.931<br/>gini = 0.444<br/>samples = 3<br/>value = [0, 1, 2, 0, 0, 0]>, fillcolor="#9cf2c0"] ;
579 -> 580 ;
581 [label=<gini = 0.0<br/>samples = 1<br/>value = [0, 1, 0, 0, 0, 0]>, fillcolor="#9de539"] ;
580 -> 581 ;
582 [label=<gini = 0.0<br/>samples = 2<br/>value = [0, 0, 2, 0, 0, 0]>, fillcolor="#39e581"] ;
580 -> 582 ;
583 [label=<389 &le; -0.746<br/>gini = 0.298<br/>samples = 11<br/>value = [0, 9, 2, 0, 0, 0]>, fillcolor="#b3eb65"] ;
579 -> 583 ;
584 [label=<gini = 0.0<br/>samples = 5<br/>value = [0, 5, 0, 0, 0, 0]>, fillcolor="#9de539"] ;
583 -> 584 ;
585 [label=<389 &le; -0.739<br/>gini = 0.444<br/>samples = 6<br/>value = [0, 4, 2, 0, 0, 0]>, fillcolor="#cef29c"] ;
583 -> 585 ;
586 [label=<52 &le; 0.939<br/>gini = 0.444<br/>samples = 3<br/>value = [0, 1, 2, 0, 0, 0]>, fillcolor="#9cf2c0"] ;
585 -> 586 ;
587 [label=<gini = 0.0<br/>samples = 2<br/>value = [0, 0, 2, 0, 0, 0]>, fillcolor="#39e581"] ;
586 -> 587 ;
588 [label=<gini = 0.0<br/>samples = 1<br/>value = [0, 1, 0, 0, 0, 0]>, fillcolor="#9de539"] ;
586 -> 588 ;
589 [label=<gini = 0.0<br/>samples = 3<br/>value = [0, 3, 0, 0, 0, 0]>, fillcolor="#9de539"] ;
585 -> 589 ;
590 [label=<gini = 0.0<br/>samples = 1<br/>value = [0, 0, 1, 0, 0, 0]>, fillcolor="#39e581"] ;
578 -> 590 ;
591 [label=<gini = 0.0<br/>samples = 3<br/>value = [3, 0, 0, 0, 0, 0]>, fillcolor="#e58139"] ;
575 -> 591 ;
592 [label=<52 &le; 0.945<br/>gini = 0.506<br/>samples = 100<br/>value = [64, 28, 8, 0, 0, 0]>, fillcolor="#f2c09c"] ;
526 -> 592 ;
593 [label=<41 &le; -0.209<br/>gini = 0.465<br/>samples = 91<br/>value = [63, 20, 8, 0, 0, 0]>, fillcolor="#efb387"] ;
592 -> 593 ;
594 [label=<52 &le; 0.896<br/>gini = 0.303<br/>samples = 66<br/>value = [54, 11, 1, 0, 0, 0]>, fillcolor="#eb9c64"] ;
593 -> 594 ;
595 [label=<gini = 0.0<br/>samples = 1<br/>value = [0, 1, 0, 0, 0, 0]>, fillcolor="#9de539"] ;
594 -> 595 ;
596 [label=<52 &le; 0.93<br/>gini = 0.286<br/>samples = 65<br/>value = [54, 10, 1, 0, 0, 0]>, fillcolor="#ea9a61"] ;
594 -> 596 ;
597 [label=<389 &le; -0.78<br/>gini = 0.114<br/>samples = 33<br/>value = [31, 2, 0, 0, 0, 0]>, fillcolor="#e78946"] ;
596 -> 597 ;
598 [label=<gini = 0.0<br/>samples = 28<br/>value = [28, 0, 0, 0, 0, 0]>, fillcolor="#e58139"] ;
597 -> 598 ;
599 [label=<52 &le; 0.916<br/>gini = 0.48<br/>samples = 5<br/>value = [3, 2, 0, 0, 0, 0]>, fillcolor="#f6d5bd"] ;
597 -> 599 ;
600 [label=<gini = 0.0<br/>samples = 2<br/>value = [2, 0, 0, 0, 0, 0]>, fillcolor="#e58139"] ;
599 -> 600 ;
601 [label=<52 &le; 0.925<br/>gini = 0.444<br/>samples = 3<br/>value = [1, 2, 0, 0, 0, 0]>, fillcolor="#cef29c"] ;
599 -> 601 ;
602 [label=<gini = 0.0<br/>samples = 2<br/>value = [0, 2, 0, 0, 0, 0]>, fillcolor="#9de539"] ;
601 -> 602 ;
603 [label=<gini = 0.0<br/>samples = 1<br/>value = [1, 0, 0, 0, 0, 0]>, fillcolor="#e58139"] ;
601 -> 603 ;
604 [label=<52 &le; 0.931<br/>gini = 0.42<br/>samples = 32<br/>value = [23, 8, 1, 0, 0, 0]>, fillcolor="#efb083"] ;
596 -> 604 ;
605 [label=<gini = 0.0<br/>samples = 2<br/>value = [0, 2, 0, 0, 0, 0]>, fillcolor="#9de539"] ;
604 -> 605 ;
606 [label=<389 &le; -0.909<br/>gini = 0.371<br/>samples = 30<br/>value = [23, 6, 1, 0, 0, 0]>, fillcolor="#eda673"] ;
604 -> 606 ;
607 [label=<gini = 0.0<br/>samples = 1<br/>value = [0, 1, 0, 0, 0, 0]>, fillcolor="#9de539"] ;
606 -> 607 ;
608 [label=<41 &le; -0.222<br/>gini = 0.34<br/>samples = 29<br/>value = [23, 5, 1, 0, 0, 0]>, fillcolor="#eca06a"] ;
606 -> 608 ;
609 [label=<gini = 0.0<br/>samples = 1<br/>value = [0, 1, 0, 0, 0, 0]>, fillcolor="#9de539"] ;
608 -> 609 ;
610 [label=<389 &le; -0.81<br/>gini = 0.304<br/>samples = 28<br/>value = [23, 4, 1, 0, 0, 0]>, fillcolor="#ea9b62"] ;
608 -> 610 ;
611 [label=<389 &le; -0.852<br/>gini = 0.462<br/>samples = 13<br/>value = [9, 3, 1, 0, 0, 0]>, fillcolor="#efb388"] ;
610 -> 611 ;
612 [label=<gini = 0.0<br/>samples = 8<br/>value = [8, 0, 0, 0, 0, 0]>, fillcolor="#e58139"] ;
611 -> 612 ;
613 [label=<389 &le; -0.827<br/>gini = 0.56<br/>samples = 5<br/>value = [1, 3, 1, 0, 0, 0]>, fillcolor="#cef29c"] ;
611 -> 613 ;
614 [label=<389 &le; -0.848<br/>gini = 0.375<br/>samples = 4<br/>value = [1, 3, 0, 0, 0, 0]>, fillcolor="#beee7b"] ;
613 -> 614 ;
615 [label=<gini = 0.0<br/>samples = 2<br/>value = [0, 2, 0, 0, 0, 0]>, fillcolor="#9de539"] ;
614 -> 615 ;
616 [label=<52 &le; 0.943<br/>gini = 0.5<br/>samples = 2<br/>value = [1, 1, 0, 0, 0, 0]>, fillcolor="#ffffff"] ;
614 -> 616 ;
617 [label=<gini = 0.0<br/>samples = 1<br/>value = [1, 0, 0, 0, 0, 0]>, fillcolor="#e58139"] ;
616 -> 617 ;
618 [label=<gini = 0.0<br/>samples = 1<br/>value = [0, 1, 0, 0, 0, 0]>, fillcolor="#9de539"] ;
616 -> 618 ;
619 [label=<gini = 0.0<br/>samples = 1<br/>value = [0, 0, 1, 0, 0, 0]>, fillcolor="#39e581"] ;
613 -> 619 ;
620 [label=<41 &le; -0.22<br/>gini = 0.124<br/>samples = 15<br/>value = [14, 1, 0, 0, 0, 0]>, fillcolor="#e78a47"] ;
610 -> 620 ;
621 [label=<41 &le; -0.22<br/>gini = 0.444<br/>samples = 3<br/>value = [2, 1, 0, 0, 0, 0]>, fillcolor="#f2c09c"] ;
620 -> 621 ;
622 [label=<gini = 0.0<br/>samples = 2<br/>value = [2, 0, 0, 0, 0, 0]>, fillcolor="#e58139"] ;
621 -> 622 ;
623 [label=<gini = 0.0<br/>samples = 1<br/>value = [0, 1, 0, 0, 0, 0]>, fillcolor="#9de539"] ;
621 -> 623 ;
624 [label=<gini = 0.0<br/>samples = 12<br/>value = [12, 0, 0, 0, 0, 0]>, fillcolor="#e58139"] ;
620 -> 624 ;
625 [label=<389 &le; -0.761<br/>gini = 0.662<br/>samples = 25<br/>value = [9, 9, 7, 0, 0, 0]>, fillcolor="#ffffff"] ;
593 -> 625 ;
626 [label=<389 &le; -0.841<br/>gini = 0.612<br/>samples = 21<br/>value = [9, 9, 3, 0, 0, 0]>, fillcolor="#ffffff"] ;
625 -> 626 ;
627 [label=<389 &le; -0.861<br/>gini = 0.494<br/>samples = 9<br/>value = [1, 6, 2, 0, 0, 0]>, fillcolor="#c7f08e"] ;
626 -> 627 ;
628 [label=<52 &le; 0.922<br/>gini = 0.278<br/>samples = 6<br/>value = [1, 5, 0, 0, 0, 0]>, fillcolor="#b1ea61"] ;
627 -> 628 ;
629 [label=<52 &le; 0.9<br/>gini = 0.444<br/>samples = 3<br/>value = [1, 2, 0, 0, 0, 0]>, fillcolor="#cef29c"] ;
628 -> 629 ;
630 [label=<gini = 0.0<br/>samples = 2<br/>value = [0, 2, 0, 0, 0, 0]>, fillcolor="#9de539"] ;
629 -> 630 ;
631 [label=<gini = 0.0<br/>samples = 1<br/>value = [1, 0, 0, 0, 0, 0]>, fillcolor="#e58139"] ;
629 -> 631 ;
632 [label=<gini = 0.0<br/>samples = 3<br/>value = [0, 3, 0, 0, 0, 0]>, fillcolor="#9de539"] ;
628 -> 632 ;
633 [label=<41 &le; -0.199<br/>gini = 0.444<br/>samples = 3<br/>value = [0, 1, 2, 0, 0, 0]>, fillcolor="#9cf2c0"] ;
627 -> 633 ;
634 [label=<gini = 0.0<br/>samples = 2<br/>value = [0, 0, 2, 0, 0, 0]>, fillcolor="#39e581"] ;
633 -> 634 ;
635 [label=<gini = 0.0<br/>samples = 1<br/>value = [0, 1, 0, 0, 0, 0]>, fillcolor="#9de539"] ;
633 -> 635 ;
636 [label=<52 &le; 0.942<br/>gini = 0.486<br/>samples = 12<br/>value = [8, 3, 1, 0, 0, 0]>, fillcolor="#f1b991"] ;
626 -> 636 ;
637 [label=<52 &le; 0.929<br/>gini = 0.612<br/>samples = 7<br/>value = [3, 3, 1, 0, 0, 0]>, fillcolor="#ffffff"] ;
636 -> 637 ;
638 [label=<gini = 0.0<br/>samples = 3<br/>value = [3, 0, 0, 0, 0, 0]>, fillcolor="#e58139"] ;
637 -> 638 ;
639 [label=<52 &le; 0.933<br/>gini = 0.375<br/>samples = 4<br/>value = [0, 3, 1, 0, 0, 0]>, fillcolor="#beee7b"] ;
637 -> 639 ;
640 [label=<gini = 0.0<br/>samples = 1<br/>value = [0, 0, 1, 0, 0, 0]>, fillcolor="#39e581"] ;
639 -> 640 ;
641 [label=<gini = 0.0<br/>samples = 3<br/>value = [0, 3, 0, 0, 0, 0]>, fillcolor="#9de539"] ;
639 -> 641 ;
642 [label=<gini = 0.0<br/>samples = 5<br/>value = [5, 0, 0, 0, 0, 0]>, fillcolor="#e58139"] ;
636 -> 642 ;
643 [label=<gini = 0.0<br/>samples = 4<br/>value = [0, 0, 4, 0, 0, 0]>, fillcolor="#39e581"] ;
625 -> 643 ;
644 [label=<41 &le; -0.222<br/>gini = 0.198<br/>samples = 9<br/>value = [1, 8, 0, 0, 0, 0]>, fillcolor="#a9e852"] ;
592 -> 644 ;
645 [label=<gini = 0.0<br/>samples = 1<br/>value = [1, 0, 0, 0, 0, 0]>, fillcolor="#e58139"] ;
644 -> 645 ;
646 [label=<gini = 0.0<br/>samples = 8<br/>value = [0, 8, 0, 0, 0, 0]>, fillcolor="#9de539"] ;
644 -> 646 ;
647 [label=<41 &le; -0.232<br/>gini = 0.627<br/>samples = 127<br/>value = [22, 56, 49, 0, 0, 0]>, fillcolor="#f6fded"] ;
513 -> 647 ;
648 [label=<41 &le; -0.302<br/>gini = 0.573<br/>samples = 83<br/>value = [14, 48, 21, 0, 0, 0]>, fillcolor="#d4f4a9"] ;
647 -> 648 ;
649 [label=<52 &le; 0.922<br/>gini = 0.497<br/>samples = 13<br/>value = [6, 7, 0, 0, 0, 0]>, fillcolor="#f1fbe3"] ;
648 -> 649 ;
650 [label=<gini = 0.0<br/>samples = 5<br/>value = [0, 5, 0, 0, 0, 0]>, fillcolor="#9de539"] ;
649 -> 650 ;
651 [label=<389 &le; -0.696<br/>gini = 0.375<br/>samples = 8<br/>value = [6, 2, 0, 0, 0, 0]>, fillcolor="#eeab7b"] ;
649 -> 651 ;
652 [label=<gini = 0.0<br/>samples = 2<br/>value = [0, 2, 0, 0, 0, 0]>, fillcolor="#9de539"] ;
651 -> 652 ;
653 [label=<gini = 0.0<br/>samples = 6<br/>value = [6, 0, 0, 0, 0, 0]>, fillcolor="#e58139"] ;
651 -> 653 ;
654 [label=<52 &le; 0.93<br/>gini = 0.554<br/>samples = 70<br/>value = [8, 41, 21, 0, 0, 0]>, fillcolor="#d7f4ae"] ;
648 -> 654 ;
655 [label=<389 &le; -0.699<br/>gini = 0.483<br/>samples = 22<br/>value = [0, 9, 13, 0, 0, 0]>, fillcolor="#c2f7d8"] ;
654 -> 655 ;
656 [label=<gini = 0.0<br/>samples = 7<br/>value = [0, 0, 7, 0, 0, 0]>, fillcolor="#39e581"] ;
655 -> 656 ;
657 [label=<41 &le; -0.257<br/>gini = 0.48<br/>samples = 15<br/>value = [0, 9, 6, 0, 0, 0]>, fillcolor="#def6bd"] ;
655 -> 657 ;
658 [label=<52 &le; 0.913<br/>gini = 0.469<br/>samples = 8<br/>value = [0, 3, 5, 0, 0, 0]>, fillcolor="#b0f5cd"] ;
657 -> 658 ;
659 [label=<389 &le; -0.646<br/>gini = 0.375<br/>samples = 4<br/>value = [0, 3, 1, 0, 0, 0]>, fillcolor="#beee7b"] ;
658 -> 659 ;
660 [label=<gini = 0.0<br/>samples = 3<br/>value = [0, 3, 0, 0, 0, 0]>, fillcolor="#9de539"] ;
659 -> 660 ;
661 [label=<gini = 0.0<br/>samples = 1<br/>value = [0, 0, 1, 0, 0, 0]>, fillcolor="#39e581"] ;
659 -> 661 ;
662 [label=<gini = 0.0<br/>samples = 4<br/>value = [0, 0, 4, 0, 0, 0]>, fillcolor="#39e581"] ;
658 -> 662 ;
663 [label=<389 &le; -0.648<br/>gini = 0.245<br/>samples = 7<br/>value = [0, 6, 1, 0, 0, 0]>, fillcolor="#ade95a"] ;
657 -> 663 ;
664 [label=<gini = 0.0<br/>samples = 4<br/>value = [0, 4, 0, 0, 0, 0]>, fillcolor="#9de539"] ;
663 -> 664 ;
665 [label=<389 &le; -0.643<br/>gini = 0.444<br/>samples = 3<br/>value = [0, 2, 1, 0, 0, 0]>, fillcolor="#cef29c"] ;
663 -> 665 ;
666 [label=<gini = 0.0<br/>samples = 1<br/>value = [0, 0, 1, 0, 0, 0]>, fillcolor="#39e581"] ;
665 -> 666 ;
667 [label=<gini = 0.0<br/>samples = 2<br/>value = [0, 2, 0, 0, 0, 0]>, fillcolor="#9de539"] ;
665 -> 667 ;
668 [label=<52 &le; 0.938<br/>gini = 0.5<br/>samples = 48<br/>value = [8, 32, 8, 0, 0, 0]>, fillcolor="#c4ef88"] ;
654 -> 668 ;
669 [label=<52 &le; 0.935<br/>gini = 0.172<br/>samples = 21<br/>value = [0, 19, 2, 0, 0, 0]>, fillcolor="#a7e84e"] ;
668 -> 669 ;
670 [label=<52 &le; 0.932<br/>gini = 0.298<br/>samples = 11<br/>value = [0, 9, 2, 0, 0, 0]>, fillcolor="#b3eb65"] ;
669 -> 670 ;
671 [label=<gini = 0.0<br/>samples = 8<br/>value = [0, 8, 0, 0, 0, 0]>, fillcolor="#9de539"] ;
670 -> 671 ;
672 [label=<389 &le; -0.714<br/>gini = 0.444<br/>samples = 3<br/>value = [0, 1, 2, 0, 0, 0]>, fillcolor="#9cf2c0"] ;
670 -> 672 ;
673 [label=<gini = 0.0<br/>samples = 1<br/>value = [0, 1, 0, 0, 0, 0]>, fillcolor="#9de539"] ;
672 -> 673 ;
674 [label=<gini = 0.0<br/>samples = 2<br/>value = [0, 0, 2, 0, 0, 0]>, fillcolor="#39e581"] ;
672 -> 674 ;
675 [label=<gini = 0.0<br/>samples = 10<br/>value = [0, 10, 0, 0, 0, 0]>, fillcolor="#9de539"] ;
669 -> 675 ;
676 [label=<389 &le; -0.693<br/>gini = 0.631<br/>samples = 27<br/>value = [8, 13, 6, 0, 0, 0]>, fillcolor="#e5f8cb"] ;
668 -> 676 ;
677 [label=<41 &le; -0.238<br/>gini = 0.278<br/>samples = 12<br/>value = [2, 10, 0, 0, 0, 0]>, fillcolor="#b1ea61"] ;
676 -> 677 ;
678 [label=<gini = 0.0<br/>samples = 10<br/>value = [0, 10, 0, 0, 0, 0]>, fillcolor="#9de539"] ;
677 -> 678 ;
679 [label=<gini = 0.0<br/>samples = 2<br/>value = [2, 0, 0, 0, 0, 0]>, fillcolor="#e58139"] ;
677 -> 679 ;
680 [label=<41 &le; -0.275<br/>gini = 0.64<br/>samples = 15<br/>value = [6, 3, 6, 0, 0, 0]>, fillcolor="#ffffff"] ;
676 -> 680 ;
681 [label=<gini = 0.0<br/>samples = 3<br/>value = [0, 0, 3, 0, 0, 0]>, fillcolor="#39e581"] ;
680 -> 681 ;
682 [label=<52 &le; 0.944<br/>gini = 0.625<br/>samples = 12<br/>value = [6, 3, 3, 0, 0, 0]>, fillcolor="#f6d5bd"] ;
680 -> 682 ;
683 [label=<41 &le; -0.271<br/>gini = 0.469<br/>samples = 8<br/>value = [5, 3, 0, 0, 0, 0]>, fillcolor="#f5cdb0"] ;
682 -> 683 ;
684 [label=<gini = 0.0<br/>samples = 1<br/>value = [0, 1, 0, 0, 0, 0]>, fillcolor="#9de539"] ;
683 -> 684 ;
685 [label=<389 &le; -0.639<br/>gini = 0.408<br/>samples = 7<br/>value = [5, 2, 0, 0, 0, 0]>, fillcolor="#efb388"] ;
683 -> 685 ;
686 [label=<52 &le; 0.94<br/>gini = 0.278<br/>samples = 6<br/>value = [5, 1, 0, 0, 0, 0]>, fillcolor="#ea9a61"] ;
685 -> 686 ;
687 [label=<gini = 0.0<br/>samples = 1<br/>value = [0, 1, 0, 0, 0, 0]>, fillcolor="#9de539"] ;
686 -> 687 ;
688 [label=<gini = 0.0<br/>samples = 5<br/>value = [5, 0, 0, 0, 0, 0]>, fillcolor="#e58139"] ;
686 -> 688 ;
689 [label=<gini = 0.0<br/>samples = 1<br/>value = [0, 1, 0, 0, 0, 0]>, fillcolor="#9de539"] ;
685 -> 689 ;
690 [label=<389 &le; -0.683<br/>gini = 0.375<br/>samples = 4<br/>value = [1, 0, 3, 0, 0, 0]>, fillcolor="#7beeab"] ;
682 -> 690 ;
691 [label=<gini = 0.0<br/>samples = 1<br/>value = [1, 0, 0, 0, 0, 0]>, fillcolor="#e58139"] ;
690 -> 691 ;
692 [label=<gini = 0.0<br/>samples = 3<br/>value = [0, 0, 3, 0, 0, 0]>, fillcolor="#39e581"] ;
690 -> 692 ;
693 [label=<41 &le; -0.18<br/>gini = 0.529<br/>samples = 44<br/>value = [8, 8, 28, 0, 0, 0]>, fillcolor="#91f1b9"] ;
647 -> 693 ;
694 [label=<52 &le; 0.922<br/>gini = 0.481<br/>samples = 41<br/>value = [5, 8, 28, 0, 0, 0]>, fillcolor="#87efb3"] ;
693 -> 694 ;
695 [label=<gini = 0.0<br/>samples = 11<br/>value = [0, 0, 11, 0, 0, 0]>, fillcolor="#39e581"] ;
694 -> 695 ;
696 [label=<52 &le; 0.933<br/>gini = 0.58<br/>samples = 30<br/>value = [5, 8, 17, 0, 0, 0]>, fillcolor="#aef4cb"] ;
694 -> 696 ;
697 [label=<52 &le; 0.93<br/>gini = 0.5<br/>samples = 12<br/>value = [0, 6, 6, 0, 0, 0]>, fillcolor="#ffffff"] ;
696 -> 697 ;
698 [label=<389 &le; -0.643<br/>gini = 0.444<br/>samples = 9<br/>value = [0, 3, 6, 0, 0, 0]>, fillcolor="#9cf2c0"] ;
697 -> 698 ;
699 [label=<52 &le; 0.925<br/>gini = 0.375<br/>samples = 8<br/>value = [0, 2, 6, 0, 0, 0]>, fillcolor="#7beeab"] ;
698 -> 699 ;
700 [label=<41 &le; -0.199<br/>gini = 0.444<br/>samples = 3<br/>value = [0, 2, 1, 0, 0, 0]>, fillcolor="#cef29c"] ;
699 -> 700 ;
701 [label=<gini = 0.0<br/>samples = 2<br/>value = [0, 2, 0, 0, 0, 0]>, fillcolor="#9de539"] ;
700 -> 701 ;
702 [label=<gini = 0.0<br/>samples = 1<br/>value = [0, 0, 1, 0, 0, 0]>, fillcolor="#39e581"] ;
700 -> 702 ;
703 [label=<gini = 0.0<br/>samples = 5<br/>value = [0, 0, 5, 0, 0, 0]>, fillcolor="#39e581"] ;
699 -> 703 ;
704 [label=<gini = 0.0<br/>samples = 1<br/>value = [0, 1, 0, 0, 0, 0]>, fillcolor="#9de539"] ;
698 -> 704 ;
705 [label=<gini = 0.0<br/>samples = 3<br/>value = [0, 3, 0, 0, 0, 0]>, fillcolor="#9de539"] ;
697 -> 705 ;
706 [label=<389 &le; -0.682<br/>gini = 0.537<br/>samples = 18<br/>value = [5, 2, 11, 0, 0, 0]>, fillcolor="#a4f3c5"] ;
696 -> 706 ;
707 [label=<41 &le; -0.216<br/>gini = 0.594<br/>samples = 8<br/>value = [4, 1, 3, 0, 0, 0]>, fillcolor="#fae6d7"] ;
706 -> 707 ;
708 [label=<41 &le; -0.228<br/>gini = 0.444<br/>samples = 6<br/>value = [4, 0, 2, 0, 0, 0]>, fillcolor="#f2c09c"] ;
707 -> 708 ;
709 [label=<gini = 0.0<br/>samples = 1<br/>value = [0, 0, 1, 0, 0, 0]>, fillcolor="#39e581"] ;
708 -> 709 ;
710 [label=<41 &le; -0.221<br/>gini = 0.32<br/>samples = 5<br/>value = [4, 0, 1, 0, 0, 0]>, fillcolor="#eca06a"] ;
708 -> 710 ;
711 [label=<gini = 0.0<br/>samples = 3<br/>value = [3, 0, 0, 0, 0, 0]>, fillcolor="#e58139"] ;
710 -> 711 ;
712 [label=<41 &le; -0.218<br/>gini = 0.5<br/>samples = 2<br/>value = [1, 0, 1, 0, 0, 0]>, fillcolor="#ffffff"] ;
710 -> 712 ;
713 [label=<gini = 0.0<br/>samples = 1<br/>value = [0, 0, 1, 0, 0, 0]>, fillcolor="#39e581"] ;
712 -> 713 ;
714 [label=<gini = 0.0<br/>samples = 1<br/>value = [1, 0, 0, 0, 0, 0]>, fillcolor="#e58139"] ;
712 -> 714 ;
715 [label=<389 &le; -0.711<br/>gini = 0.5<br/>samples = 2<br/>value = [0, 1, 1, 0, 0, 0]>, fillcolor="#ffffff"] ;
707 -> 715 ;
716 [label=<gini = 0.0<br/>samples = 1<br/>value = [0, 0, 1, 0, 0, 0]>, fillcolor="#39e581"] ;
715 -> 716 ;
717 [label=<gini = 0.0<br/>samples = 1<br/>value = [0, 1, 0, 0, 0, 0]>, fillcolor="#9de539"] ;
715 -> 717 ;
718 [label=<389 &le; -0.642<br/>gini = 0.34<br/>samples = 10<br/>value = [1, 1, 8, 0, 0, 0]>, fillcolor="#65eb9d"] ;
706 -> 718 ;
719 [label=<gini = 0.0<br/>samples = 8<br/>value = [0, 0, 8, 0, 0, 0]>, fillcolor="#39e581"] ;
718 -> 719 ;
720 [label=<41 &le; -0.202<br/>gini = 0.5<br/>samples = 2<br/>value = [1, 1, 0, 0, 0, 0]>, fillcolor="#ffffff"] ;
718 -> 720 ;
721 [label=<gini = 0.0<br/>samples = 1<br/>value = [1, 0, 0, 0, 0, 0]>, fillcolor="#e58139"] ;
720 -> 721 ;
722 [label=<gini = 0.0<br/>samples = 1<br/>value = [0, 1, 0, 0, 0, 0]>, fillcolor="#9de539"] ;
720 -> 722 ;
723 [label=<gini = 0.0<br/>samples = 3<br/>value = [3, 0, 0, 0, 0, 0]>, fillcolor="#e58139"] ;
693 -> 723 ;
724 [label=<41 &le; -0.073<br/>gini = 0.518<br/>samples = 156<br/>value = [95, 10, 51, 0, 0, 0]>, fillcolor="#f4caac"] ;
510 -> 724 ;
725 [label=<389 &le; -0.675<br/>gini = 0.407<br/>samples = 126<br/>value = [94, 10, 22, 0, 0, 0]>, fillcolor="#eda876"] ;
724 -> 725 ;
726 [label=<41 &le; -0.137<br/>gini = 0.337<br/>samples = 111<br/>value = [89, 10, 12, 0, 0, 0]>, fillcolor="#eb9d65"] ;
725 -> 726 ;
727 [label=<389 &le; -0.9<br/>gini = 0.411<br/>samples = 40<br/>value = [29, 10, 1, 0, 0, 0]>, fillcolor="#efaf82"] ;
726 -> 727 ;
728 [label=<41 &le; -0.138<br/>gini = 0.408<br/>samples = 7<br/>value = [2, 5, 0, 0, 0, 0]>, fillcolor="#c4ef88"] ;
727 -> 728 ;
729 [label=<52 &le; 0.945<br/>gini = 0.278<br/>samples = 6<br/>value = [1, 5, 0, 0, 0, 0]>, fillcolor="#b1ea61"] ;
728 -> 729 ;
730 [label=<gini = 0.0<br/>samples = 5<br/>value = [0, 5, 0, 0, 0, 0]>, fillcolor="#9de539"] ;
729 -> 730 ;
731 [label=<gini = 0.0<br/>samples = 1<br/>value = [1, 0, 0, 0, 0, 0]>, fillcolor="#e58139"] ;
729 -> 731 ;
732 [label=<gini = 0.0<br/>samples = 1<br/>value = [1, 0, 0, 0, 0, 0]>, fillcolor="#e58139"] ;
728 -> 732 ;
733 [label=<52 &le; 0.88<br/>gini = 0.307<br/>samples = 33<br/>value = [27, 5, 1, 0, 0, 0]>, fillcolor="#eb9c63"] ;
727 -> 733 ;
734 [label=<gini = 0.0<br/>samples = 1<br/>value = [0, 1, 0, 0, 0, 0]>, fillcolor="#9de539"] ;
733 -> 734 ;
735 [label=<41 &le; -0.138<br/>gini = 0.271<br/>samples = 32<br/>value = [27, 4, 1, 0, 0, 0]>, fillcolor="#ea985c"] ;
733 -> 735 ;
736 [label=<52 &le; 0.924<br/>gini = 0.231<br/>samples = 31<br/>value = [27, 3, 1, 0, 0, 0]>, fillcolor="#e99355"] ;
735 -> 736 ;
737 [label=<52 &le; 0.887<br/>gini = 0.083<br/>samples = 23<br/>value = [22, 1, 0, 0, 0, 0]>, fillcolor="#e68742"] ;
736 -> 737 ;
738 [label=<389 &le; -0.817<br/>gini = 0.32<br/>samples = 5<br/>value = [4, 1, 0, 0, 0, 0]>, fillcolor="#eca06a"] ;
737 -> 738 ;
739 [label=<gini = 0.0<br/>samples = 1<br/>value = [0, 1, 0, 0, 0, 0]>, fillcolor="#9de539"] ;
738 -> 739 ;
740 [label=<gini = 0.0<br/>samples = 4<br/>value = [4, 0, 0, 0, 0, 0]>, fillcolor="#e58139"] ;
738 -> 740 ;
741 [label=<gini = 0.0<br/>samples = 18<br/>value = [18, 0, 0, 0, 0, 0]>, fillcolor="#e58139"] ;
737 -> 741 ;
742 [label=<52 &le; 0.941<br/>gini = 0.531<br/>samples = 8<br/>value = [5, 2, 1, 0, 0, 0]>, fillcolor="#f2c09c"] ;
736 -> 742 ;
743 [label=<389 &le; -0.691<br/>gini = 0.444<br/>samples = 3<br/>value = [0, 2, 1, 0, 0, 0]>, fillcolor="#cef29c"] ;
742 -> 743 ;
744 [label=<gini = 0.0<br/>samples = 2<br/>value = [0, 2, 0, 0, 0, 0]>, fillcolor="#9de539"] ;
743 -> 744 ;
745 [label=<gini = 0.0<br/>samples = 1<br/>value = [0, 0, 1, 0, 0, 0]>, fillcolor="#39e581"] ;
743 -> 745 ;
746 [label=<gini = 0.0<br/>samples = 5<br/>value = [5, 0, 0, 0, 0, 0]>, fillcolor="#e58139"] ;
742 -> 746 ;
747 [label=<gini = 0.0<br/>samples = 1<br/>value = [0, 1, 0, 0, 0, 0]>, fillcolor="#9de539"] ;
735 -> 747 ;
748 [label=<389 &le; -0.821<br/>gini = 0.262<br/>samples = 71<br/>value = [60, 0, 11, 0, 0, 0]>, fillcolor="#ea985d"] ;
726 -> 748 ;
749 [label=<52 &le; 0.9<br/>gini = 0.128<br/>samples = 58<br/>value = [54, 0, 4, 0, 0, 0]>, fillcolor="#e78a48"] ;
748 -> 749 ;
750 [label=<389 &le; -0.925<br/>gini = 0.375<br/>samples = 4<br/>value = [1, 0, 3, 0, 0, 0]>, fillcolor="#7beeab"] ;
749 -> 750 ;
751 [label=<gini = 0.0<br/>samples = 1<br/>value = [1, 0, 0, 0, 0, 0]>, fillcolor="#e58139"] ;
750 -> 751 ;
752 [label=<gini = 0.0<br/>samples = 3<br/>value = [0, 0, 3, 0, 0, 0]>, fillcolor="#39e581"] ;
750 -> 752 ;
753 [label=<52 &le; 0.946<br/>gini = 0.036<br/>samples = 54<br/>value = [53, 0, 1, 0, 0, 0]>, fillcolor="#e5833d"] ;
749 -> 753 ;
754 [label=<gini = 0.0<br/>samples = 53<br/>value = [53, 0, 0, 0, 0, 0]>, fillcolor="#e58139"] ;
753 -> 754 ;
755 [label=<gini = 0.0<br/>samples = 1<br/>value = [0, 0, 1, 0, 0, 0]>, fillcolor="#39e581"] ;
753 -> 755 ;
756 [label=<52 &le; 0.944<br/>gini = 0.497<br/>samples = 13<br/>value = [6, 0, 7, 0, 0, 0]>, fillcolor="#e3fbed"] ;
748 -> 756 ;
757 [label=<41 &le; -0.123<br/>gini = 0.346<br/>samples = 9<br/>value = [2, 0, 7, 0, 0, 0]>, fillcolor="#72eca5"] ;
756 -> 757 ;
758 [label=<gini = 0.0<br/>samples = 2<br/>value = [2, 0, 0, 0, 0, 0]>, fillcolor="#e58139"] ;
757 -> 758 ;
759 [label=<gini = 0.0<br/>samples = 7<br/>value = [0, 0, 7, 0, 0, 0]>, fillcolor="#39e581"] ;
757 -> 759 ;
760 [label=<gini = 0.0<br/>samples = 4<br/>value = [4, 0, 0, 0, 0, 0]>, fillcolor="#e58139"] ;
756 -> 760 ;
761 [label=<41 &le; -0.142<br/>gini = 0.444<br/>samples = 15<br/>value = [5, 0, 10, 0, 0, 0]>, fillcolor="#9cf2c0"] ;
725 -> 761 ;
762 [label=<gini = 0.0<br/>samples = 5<br/>value = [5, 0, 0, 0, 0, 0]>, fillcolor="#e58139"] ;
761 -> 762 ;
763 [label=<gini = 0.0<br/>samples = 10<br/>value = [0, 0, 10, 0, 0, 0]>, fillcolor="#39e581"] ;
761 -> 763 ;
764 [label=<41 &le; -0.068<br/>gini = 0.064<br/>samples = 30<br/>value = [1, 0, 29, 0, 0, 0]>, fillcolor="#40e685"] ;
724 -> 764 ;
765 [label=<41 &le; -0.07<br/>gini = 0.375<br/>samples = 4<br/>value = [1, 0, 3, 0, 0, 0]>, fillcolor="#7beeab"] ;
764 -> 765 ;
766 [label=<gini = 0.0<br/>samples = 3<br/>value = [0, 0, 3, 0, 0, 0]>, fillcolor="#39e581"] ;
765 -> 766 ;
767 [label=<gini = 0.0<br/>samples = 1<br/>value = [1, 0, 0, 0, 0, 0]>, fillcolor="#e58139"] ;
765 -> 767 ;
768 [label=<gini = 0.0<br/>samples = 26<br/>value = [0, 0, 26, 0, 0, 0]>, fillcolor="#39e581"] ;
764 -> 768 ;
769 [label=<52 &le; 0.951<br/>gini = 0.358<br/>samples = 931<br/>value = [731, 71, 129, 0, 0, 0]>, fillcolor="#eba06a"] ;
363 -> 769 ;
770 [label=<41 &le; -0.187<br/>gini = 0.575<br/>samples = 103<br/>value = [57, 33, 13, 0, 0, 0]>, fillcolor="#f6d4bb"] ;
769 -> 770 ;
771 [label=<41 &le; -0.26<br/>gini = 0.609<br/>samples = 70<br/>value = [27, 33, 10, 0, 0, 0]>, fillcolor="#f1fbe3"] ;
770 -> 771 ;
772 [label=<gini = 0.0<br/>samples = 9<br/>value = [9, 0, 0, 0, 0, 0]>, fillcolor="#e58139"] ;
771 -> 772 ;
773 [label=<389 &le; -0.696<br/>gini = 0.593<br/>samples = 61<br/>value = [18, 33, 10, 0, 0, 0]>, fillcolor="#ddf6ba"] ;
771 -> 773 ;
774 [label=<41 &le; -0.231<br/>gini = 0.515<br/>samples = 53<br/>value = [16, 33, 4, 0, 0, 0]>, fillcolor="#d2f3a4"] ;
773 -> 774 ;
775 [label=<52 &le; 0.949<br/>gini = 0.211<br/>samples = 25<br/>value = [0, 22, 3, 0, 0, 0]>, fillcolor="#aae954"] ;
774 -> 775 ;
776 [label=<gini = 0.0<br/>samples = 14<br/>value = [0, 14, 0, 0, 0, 0]>, fillcolor="#9de539"] ;
775 -> 776 ;
777 [label=<52 &le; 0.95<br/>gini = 0.397<br/>samples = 11<br/>value = [0, 8, 3, 0, 0, 0]>, fillcolor="#c2ef83"] ;
775 -> 777 ;
778 [label=<gini = 0.0<br/>samples = 3<br/>value = [0, 0, 3, 0, 0, 0]>, fillcolor="#39e581"] ;
777 -> 778 ;
779 [label=<gini = 0.0<br/>samples = 8<br/>value = [0, 8, 0, 0, 0, 0]>, fillcolor="#9de539"] ;
777 -> 779 ;
780 [label=<41 &le; -0.197<br/>gini = 0.518<br/>samples = 28<br/>value = [16, 11, 1, 0, 0, 0]>, fillcolor="#f7dac5"] ;
774 -> 780 ;
781 [label=<52 &le; 0.947<br/>gini = 0.5<br/>samples = 26<br/>value = [16, 9, 1, 0, 0, 0]>, fillcolor="#f4cbad"] ;
780 -> 781 ;
782 [label=<gini = 0.0<br/>samples = 1<br/>value = [0, 0, 1, 0, 0, 0]>, fillcolor="#39e581"] ;
781 -> 782 ;
783 [label=<41 &le; -0.219<br/>gini = 0.461<br/>samples = 25<br/>value = [16, 9, 0, 0, 0, 0]>, fillcolor="#f4c8a8"] ;
781 -> 783 ;
784 [label=<41 &le; -0.228<br/>gini = 0.5<br/>samples = 12<br/>value = [6, 6, 0, 0, 0, 0]>, fillcolor="#ffffff"] ;
783 -> 784 ;
785 [label=<gini = 0.0<br/>samples = 2<br/>value = [2, 0, 0, 0, 0, 0]>, fillcolor="#e58139"] ;
784 -> 785 ;
786 [label=<389 &le; -0.721<br/>gini = 0.48<br/>samples = 10<br/>value = [4, 6, 0, 0, 0, 0]>, fillcolor="#def6bd"] ;
784 -> 786 ;
787 [label=<389 &le; -0.754<br/>gini = 0.375<br/>samples = 8<br/>value = [2, 6, 0, 0, 0, 0]>, fillcolor="#beee7b"] ;
786 -> 787 ;
788 [label=<52 &le; 0.95<br/>gini = 0.48<br/>samples = 5<br/>value = [2, 3, 0, 0, 0, 0]>, fillcolor="#def6bd"] ;
787 -> 788 ;
789 [label=<52 &le; 0.948<br/>gini = 0.444<br/>samples = 3<br/>value = [2, 1, 0, 0, 0, 0]>, fillcolor="#f2c09c"] ;
788 -> 789 ;
790 [label=<gini = 0.0<br/>samples = 1<br/>value = [0, 1, 0, 0, 0, 0]>, fillcolor="#9de539"] ;
789 -> 790 ;
791 [label=<gini = 0.0<br/>samples = 2<br/>value = [2, 0, 0, 0, 0, 0]>, fillcolor="#e58139"] ;
789 -> 791 ;
792 [label=<gini = 0.0<br/>samples = 2<br/>value = [0, 2, 0, 0, 0, 0]>, fillcolor="#9de539"] ;
788 -> 792 ;
793 [label=<gini = 0.0<br/>samples = 3<br/>value = [0, 3, 0, 0, 0, 0]>, fillcolor="#9de539"] ;
787 -> 793 ;
794 [label=<gini = 0.0<br/>samples = 2<br/>value = [2, 0, 0, 0, 0, 0]>, fillcolor="#e58139"] ;
786 -> 794 ;
795 [label=<389 &le; -0.867<br/>gini = 0.355<br/>samples = 13<br/>value = [10, 3, 0, 0, 0, 0]>, fillcolor="#eda774"] ;
783 -> 795 ;
796 [label=<gini = 0.0<br/>samples = 8<br/>value = [8, 0, 0, 0, 0, 0]>, fillcolor="#e58139"] ;
795 -> 796 ;
797 [label=<389 &le; -0.804<br/>gini = 0.48<br/>samples = 5<br/>value = [2, 3, 0, 0, 0, 0]>, fillcolor="#def6bd"] ;
795 -> 797 ;
798 [label=<gini = 0.0<br/>samples = 3<br/>value = [0, 3, 0, 0, 0, 0]>, fillcolor="#9de539"] ;
797 -> 798 ;
799 [label=<gini = 0.0<br/>samples = 2<br/>value = [2, 0, 0, 0, 0, 0]>, fillcolor="#e58139"] ;
797 -> 799 ;
800 [label=<gini = 0.0<br/>samples = 2<br/>value = [0, 2, 0, 0, 0, 0]>, fillcolor="#9de539"] ;
780 -> 800 ;
801 [label=<41 &le; -0.237<br/>gini = 0.375<br/>samples = 8<br/>value = [2, 0, 6, 0, 0, 0]>, fillcolor="#7beeab"] ;
773 -> 801 ;
802 [label=<41 &le; -0.248<br/>gini = 0.444<br/>samples = 3<br/>value = [2, 0, 1, 0, 0, 0]>, fillcolor="#f2c09c"] ;
801 -> 802 ;
803 [label=<gini = 0.0<br/>samples = 1<br/>value = [0, 0, 1, 0, 0, 0]>, fillcolor="#39e581"] ;
802 -> 803 ;
804 [label=<gini = 0.0<br/>samples = 2<br/>value = [2, 0, 0, 0, 0, 0]>, fillcolor="#e58139"] ;
802 -> 804 ;
805 [label=<gini = 0.0<br/>samples = 5<br/>value = [0, 0, 5, 0, 0, 0]>, fillcolor="#39e581"] ;
801 -> 805 ;
806 [label=<389 &le; -0.722<br/>gini = 0.165<br/>samples = 33<br/>value = [30, 0, 3, 0, 0, 0]>, fillcolor="#e88e4d"] ;
770 -> 806 ;
807 [label=<389 &le; -0.882<br/>gini = 0.062<br/>samples = 31<br/>value = [30, 0, 1, 0, 0, 0]>, fillcolor="#e68540"] ;
806 -> 807 ;
808 [label=<gini = 0.0<br/>samples = 1<br/>value = [0, 0, 1, 0, 0, 0]>, fillcolor="#39e581"] ;
807 -> 808 ;
809 [label=<gini = 0.0<br/>samples = 30<br/>value = [30, 0, 0, 0, 0, 0]>, fillcolor="#e58139"] ;
807 -> 809 ;
810 [label=<gini = 0.0<br/>samples = 2<br/>value = [0, 0, 2, 0, 0, 0]>, fillcolor="#39e581"] ;
806 -> 810 ;
811 [label=<41 &le; -0.116<br/>gini = 0.316<br/>samples = 828<br/>value = [674, 38, 116, 0, 0, 0]>, fillcolor="#eb9c64"] ;
769 -> 811 ;
812 [label=<52 &le; 0.966<br/>gini = 0.27<br/>samples = 706<br/>value = [598, 38, 70, 0, 0, 0]>, fillcolor="#e9965b"] ;
811 -> 812 ;
813 [label=<41 &le; -0.223<br/>gini = 0.386<br/>samples = 303<br/>value = [232, 31, 40, 0, 0, 0]>, fillcolor="#eca36e"] ;
812 -> 813 ;
814 [label=<389 &le; -0.799<br/>gini = 0.198<br/>samples = 186<br/>value = [166, 9, 11, 0, 0, 0]>, fillcolor="#e88f50"] ;
813 -> 814 ;
815 [label=<gini = 0.0<br/>samples = 72<br/>value = [72, 0, 0, 0, 0, 0]>, fillcolor="#e58139"] ;
814 -> 815 ;
816 [label=<389 &le; -0.785<br/>gini = 0.305<br/>samples = 114<br/>value = [94, 9, 11, 0, 0, 0]>, fillcolor="#ea995f"] ;
814 -> 816 ;
817 [label=<52 &le; 0.957<br/>gini = 0.58<br/>samples = 10<br/>value = [4, 5, 1, 0, 0, 0]>, fillcolor="#effbde"] ;
816 -> 817 ;
818 [label=<gini = 0.0<br/>samples = 4<br/>value = [0, 4, 0, 0, 0, 0]>, fillcolor="#9de539"] ;
817 -> 818 ;
819 [label=<52 &le; 0.963<br/>gini = 0.5<br/>samples = 6<br/>value = [4, 1, 1, 0, 0, 0]>, fillcolor="#efb388"] ;
817 -> 819 ;
820 [label=<389 &le; -0.796<br/>gini = 0.32<br/>samples = 5<br/>value = [4, 1, 0, 0, 0, 0]>, fillcolor="#eca06a"] ;
819 -> 820 ;
821 [label=<gini = 0.0<br/>samples = 3<br/>value = [3, 0, 0, 0, 0, 0]>, fillcolor="#e58139"] ;
820 -> 821 ;
822 [label=<52 &le; 0.96<br/>gini = 0.5<br/>samples = 2<br/>value = [1, 1, 0, 0, 0, 0]>, fillcolor="#ffffff"] ;
820 -> 822 ;
823 [label=<gini = 0.0<br/>samples = 1<br/>value = [1, 0, 0, 0, 0, 0]>, fillcolor="#e58139"] ;
822 -> 823 ;
824 [label=<gini = 0.0<br/>samples = 1<br/>value = [0, 1, 0, 0, 0, 0]>, fillcolor="#9de539"] ;
822 -> 824 ;
825 [label=<gini = 0.0<br/>samples = 1<br/>value = [0, 0, 1, 0, 0, 0]>, fillcolor="#39e581"] ;
819 -> 825 ;
826 [label=<52 &le; 0.955<br/>gini = 0.24<br/>samples = 104<br/>value = [90, 4, 10, 0, 0, 0]>, fillcolor="#e99456"] ;
816 -> 826 ;
827 [label=<52 &le; 0.955<br/>gini = 0.411<br/>samples = 35<br/>value = [26, 3, 6, 0, 0, 0]>, fillcolor="#eda876"] ;
826 -> 827 ;
828 [label=<389 &le; -0.668<br/>gini = 0.381<br/>samples = 34<br/>value = [26, 2, 6, 0, 0, 0]>, fillcolor="#eca572"] ;
827 -> 828 ;
829 [label=<52 &le; 0.955<br/>gini = 0.329<br/>samples = 31<br/>value = [25, 2, 4, 0, 0, 0]>, fillcolor="#eb9d65"] ;
828 -> 829 ;
830 [label=<389 &le; -0.779<br/>gini = 0.261<br/>samples = 27<br/>value = [23, 1, 3, 0, 0, 0]>, fillcolor="#e9965a"] ;
829 -> 830 ;
831 [label=<389 &le; -0.781<br/>gini = 0.5<br/>samples = 2<br/>value = [1, 0, 1, 0, 0, 0]>, fillcolor="#ffffff"] ;
830 -> 831 ;
832 [label=<gini = 0.0<br/>samples = 1<br/>value = [1, 0, 0, 0, 0, 0]>, fillcolor="#e58139"] ;
831 -> 832 ;
833 [label=<gini = 0.0<br/>samples = 1<br/>value = [0, 0, 1, 0, 0, 0]>, fillcolor="#39e581"] ;
831 -> 833 ;
834 [label=<52 &le; 0.953<br/>gini = 0.218<br/>samples = 25<br/>value = [22, 1, 2, 0, 0, 0]>, fillcolor="#e89153"] ;
830 -> 834 ;
835 [label=<52 &le; 0.953<br/>gini = 0.338<br/>samples = 15<br/>value = [12, 1, 2, 0, 0, 0]>, fillcolor="#eb9e67"] ;
834 -> 835 ;
836 [label=<389 &le; -0.724<br/>gini = 0.255<br/>samples = 14<br/>value = [12, 1, 1, 0, 0, 0]>, fillcolor="#e99457"] ;
835 -> 836 ;
